{"learner":{"attributes":{"scikit_learn":"{\"_estimator_type\": \"regressor\"}"},"feature_names":["Gold","Silver","CAD","Gold_ret","Silver_ret","CAD_ret","Gold_ma","Silver_ma","CAD_ma","Gold_lag_1","Silver_lag_1","CAD_lag_1","Gold_lag_2","Silver_lag_2","CAD_lag_2","Gold_lag_3","Silver_lag_3","CAD_lag_3"],"feature_types":["float","float","float","float","float","float","float","float","float","float","float","float","float","float","float","float","float","float"],"gradient_booster":{"model":{"cats":{"enc":[],"feature_segments":[],"sorted_idx":[]},"gbtree_model_param":{"num_parallel_tree":"1","num_trees":"57"},"iteration_indptr":[0,3,6,9,12,15,18,21,24,27,30,33,36,39,42,45,48,51,54,57],"tree_info":[0,1,2,0,1,2,0,1,2,0,1,2,0,1,2,0,1,2,0,1,2,0,1,2,0,1,2,0,1,2,0,1,2,0,1,2,0,1,2,0,1,2,0,1,2,0,1,2,0,1,2,0,1,2,0,1,2],"trees":[{"base_weights":[-8.823911E-6,-5.409255E2,2.5477202E2,-6.7014404E2,-3.0289697E2,7.843328E1,5.426839E2,-2.3709119E2,-1.734999E2,-1.2421864E2,-7.9734795E1,2.373401E0,4.7053707E1,1.297286E2,1.9888287E2],"categories":[],"categories_nodes":[],"categories_segments":[],"categories_sizes":[],"default_left":[0,0,0,0,0,0,0,0,0,0,0,0,0,0,0],"id":0,"left_children":[1,3,5,7,9,11,13,-1,-1,-1,-1,-1,-1,-1,-1],"loss_changes":[6.7790054E8,4.8240416E7,1.6973237E8,9.674976E6,2.428612E6,1.0456076E7,1.4534464E7,0E0,0E0,0E0,0E0,0E0,0E0,0E0,0E0],"parents":[2147483647,0,0,1,1,2,2,3,3,4,4,5,5,6,6],"right_children":[2,4,6,8,10,12,14,-1,-1,-1,-1,-1,-1,-1,-1],"split_conditions":[1.0132E3,6.88E2,1.4756E3,5.2502E2,8.57E2,1.2597E3,1.6983E3,-2.3709119E2,-1.734999E2,-1.2421864E2,-7.9734795E1,2.373401E0,4.7053707E1,1.297286E2,1.9888287E2],"split_indices":[6,0,0,6,0,0,0,0,0,0,0,0,0,0,0],"split_type":[0,0,0,0,0,0,0,0,0,0,0,0,0,0,0],"sum_hessian":[4.917E3,1.574E3,3.343E3,1.019E3,5.55E2,2.074E3,1.269E3,5.96E2,4.23E2,1.92E2,3.63E2,1.039E3,1.035E3,5.18E2,7.51E2],"tree_param":{"num_deleted":"0","num_feature":"18","num_nodes":"15","size_leaf_vector":"1"}},{"base_weights":[-5.082514E-7,-3.6467826E0,1.0269835E1,-9.904359E0,-1.6287193E0,7.1197934E0,1.6248814E1,-3.5253782E0,-2.2620952E0,-1.1511388E0,-4.961604E-2,1.6578593E0,2.9339564E0,4.535301E0,6.672036E0],"categories":[],"categories_nodes":[],"categories_segments":[],"categories_sizes":[],"default_left":[0,0,0,0,0,0,0,0,0,0,0,0,0,0,0],"id":1,"left_children":[1,3,5,7,9,11,13,-1,-1,-1,-1,-1,-1,-1,-1],"loss_changes":[1.8422567E5,4.5824184E4,2.416139E4,3.0401094E3,8.196632E3,3.4024922E3,3.7341484E3,0E0,0E0,0E0,0E0,0E0,0E0,0E0,0E0],"parents":[2147483647,0,0,1,1,2,2,3,3,4,4,5,5,6,6],"right_children":[2,4,6,8,10,12,14,-1,-1,-1,-1,-1,-1,-1,-1],"split_conditions":[2.131E1,1.2281E1,2.9549E1,5.2502E2,1.6121E1,2.5301E1,3.5629E1,-3.5253782E0,-2.2620952E0,-1.1511388E0,-4.961604E-2,1.6578593E0,2.9339564E0,4.535301E0,6.672036E0],"split_indices":[1,1,1,6,1,1,1,0,0,0,0,0,0,0,0],"split_type":[0,0,0,0,0,0,0,0,0,0,0,0,0,0,0],"sum_hessian":[4.917E3,3.629E3,1.288E3,8.84E2,2.745E3,8.45E2,4.43E2,5.96E2,2.88E2,1.153E3,1.592E3,4.61E2,3.84E2,3.26E2,1.17E2],"tree_param":{"num_deleted":"0","num_feature":"18","num_nodes":"15","size_leaf_vector":"1"}},{"base_weights":[1.775535E-8,-7.312628E-2,1.06727846E-1,-9.690855E-2,-3.3422384E-2,6.2463753E-2,1.3905746E-1,-3.5522353E-2,-2.6305314E-2,-1.585649E-2,-1.2750617E-3,1.3287022E-2,2.7249703E-2,3.8485497E-2,5.010551E-2],"categories":[],"categories_nodes":[],"categories_segments":[],"categories_sizes":[],"default_left":[0,0,0,0,0,0,0,0,0,0,0,0,0,0,0],"id":2,"left_children":[1,3,5,7,9,11,13,-1,-1,-1,-1,-1,-1,-1,-1],"loss_changes":[3.8390877E1,2.7530231E0,2.8533955E0,3.7874413E-1,5.4539764E-1,4.095149E-1,3.7088394E-1,0E0,0E0,0E0,0E0,0E0,0E0,0E0,0E0],"parents":[2147483647,0,0,1,1,2,2,3,3,4,4,5,5,6,6],"right_children":[2,4,6,8,10,12,14,-1,-1,-1,-1,-1,-1,-1,-1],"split_conditions":[8.7306505E-1,7.9120183E-1,9.5868087E-1,7.5811565E-1,8.279654E-1,9.2140424E-1,9.978048E-1,-3.5522353E-2,-2.6305314E-2,-1.585649E-2,-1.2750617E-3,1.3287022E-2,2.7249703E-2,3.8485497E-2,5.010551E-2],"split_indices":[2,2,2,2,2,2,2,0,0,0,0,0,0,0,0],"split_type":[0,0,0,0,0,0,0,0,0,0,0,0,0,0,0],"sum_hessian":[4.917E3,2.918E3,1.999E3,1.824E3,1.094E3,8.45E2,1.154E3,8.26E2,9.98E2,6.93E2,4.01E2,4.61E2,3.84E2,6.34E2,5.2E2],"tree_param":{"num_deleted":"0","num_feature":"18","num_nodes":"15","size_leaf_vector":"1"}},{"base_weights":[-4.811827E-2,-3.588367E2,1.815433E2,-4.5535953E2,-1.8689044E2,6.887063E1,3.9274396E2,-1.6074608E2,-1.1465609E2,-7.381217E1,-4.4548344E1,9.591265E0,4.789007E1,1.062913E2,1.5228964E2],"categories":[],"categories_nodes":[],"categories_segments":[],"categories_sizes":[],"default_left":[0,0,0,0,0,0,0,0,0,0,0,0,0,0,0],"id":3,"left_children":[1,3,5,7,9,11,13,-1,-1,-1,-1,-1,-1,-1,-1],"loss_changes":[3.204873E8,2.7349296E7,7.7692456E7,5.152864E6,1.254454E6,6.811287E6,5.532048E6,0E0,0E0,0E0,0E0,0E0,0E0,0E0,0E0],"parents":[2147483647,0,0,1,1,2,2,3,3,4,4,5,5,6,6],"right_children":[2,4,6,8,10,12,14,-1,-1,-1,-1,-1,-1,-1,-1],"split_conditions":[1.0882E3,7.327E2,1.541E3,5.682E2,9.087E2,1.3143E3,1.7885E3,-1.6074608E2,-1.1465609E2,-7.381217E1,-4.4548344E1,9.591265E0,4.789007E1,1.062913E2,1.5228964E2],"split_indices":[0,0,0,0,0,0,0,0,0,0,0,0,0,0,0],"split_type":[0,0,0,0,0,0,0,0,0,0,0,0,0,0,0],"sum_hessian":[4.917E3,1.652E3,3.265E3,1.057E3,5.95E2,2.13E3,1.135E3,6.54E2,4.03E2,2.88E2,3.07E2,1.459E3,6.71E2,7.11E2,4.24E2],"tree_param":{"num_deleted":"0","num_feature":"18","num_nodes":"15","size_leaf_vector":"1"}},{"base_weights":[1.791069E-3,-2.670741E0,6.6859736E0,-6.27743E0,-1.0355192E0,4.7917767E0,1.1674044E1,-2.3818636E0,-1.3710352E0,-5.596874E-1,1.4100868E-1,9.86767E-1,2.0071669E0,3.3088017E0,5.028265E0],"categories":[],"categories_nodes":[],"categories_segments":[],"categories_sizes":[],"default_left":[0,0,0,0,0,0,0,0,0,0,0,0,0,0,0],"id":4,"left_children":[1,3,5,7,9,11,13,-1,-1,-1,-1,-1,-1,-1,-1],"loss_changes":[8.78715E4,2.0718148E4,1.3219043E4,2.6855625E3,2.6672998E3,2.6598223E3,1.7587227E3,0E0,0E0,0E0,0E0,0E0,0E0,0E0,0E0],"parents":[2147483647,0,0,1,1,2,2,3,3,4,4,5,5,6,6],"right_children":[2,4,6,8,10,12,14,-1,-1,-1,-1,-1,-1,-1,-1],"split_conditions":[2.0073E1,1.319E1,3.075E1,9.73E0,1.7305E1,2.4555E1,3.7857E1,-2.3818636E0,-1.3710352E0,-5.596874E-1,1.4100868E-1,9.86767E-1,2.0071669E0,3.3088017E0,5.028265E0],"split_indices":[1,1,1,1,1,1,1,0,0,0,0,0,0,0,0],"split_type":[0,0,0,0,0,0,0,0,0,0,0,0,0,0,0],"sum_hessian":[4.917E3,3.513E3,1.404E3,1.095E3,2.418E3,1.019E3,3.85E2,6.53E2,4.42E2,1.611E3,8.07E2,5E2,5.19E2,3.06E2,7.9E1],"tree_param":{"num_deleted":"0","num_feature":"18","num_nodes":"15","size_leaf_vector":"1"}},{"base_weights":[1.0219761E-5,-4.862133E-2,7.571265E-2,-6.293565E-2,-1.20656025E-2,4.856398E-2,9.779557E-2,-2.3091836E-2,-1.4694805E-2,-7.677329E-3,1.8102684E-3,1.0731661E-2,2.0012874E-2,2.8624788E-2,3.8245346E-2],"categories":[],"categories_nodes":[],"categories_segments":[],"categories_sizes":[],"default_left":[0,0,0,0,0,0,0,0,0,0,0,0,0,0,0],"id":5,"left_children":[1,3,5,7,9,11,13,-1,-1,-1,-1,-1,-1,-1,-1],"loss_changes":[1.810943E1,1.5664353E0,1.1487312E0,3.6154938E-1,1.855745E-1,1.858623E-1,1.609087E-1,0E0,0E0,0E0,0E0,0E0,0E0,0E0,0E0],"parents":[2147483647,0,0,1,1,2,2,3,3,4,4,5,5,6,6],"right_children":[2,4,6,8,10,12,14,-1,-1,-1,-1,-1,-1,-1,-1],"split_conditions":[8.834703E-1,8.028904E-1,9.66744E-1,7.7026176E-1,8.468835E-1,9.315323E-1,1.0137875E0,-2.3091836E-2,-1.4694805E-2,-7.677329E-3,1.8102684E-3,1.0731661E-2,2.0012874E-2,2.8624788E-2,3.8245346E-2],"split_indices":[2,2,2,2,2,2,2,0,0,0,0,0,0,0,0],"split_type":[0,0,0,0,0,0,0,0,0,0,0,0,0,0,0],"sum_hessian":[4.917E3,2.994E3,1.923E3,2.151E3,8.43E2,8.64E2,1.059E3,1.307E3,8.44E2,4.98E2,3.45E2,4.42E2,4.22E2,8.26E2,2.33E2],"tree_param":{"num_deleted":"0","num_feature":"18","num_nodes":"15","size_leaf_vector":"1"}},{"base_weights":[-4.8777454E-2,-2.3007446E2,1.3551404E2,-3.095292E2,-1.1030427E2,6.3216934E1,2.8231226E2,-1.1381946E2,-8.0172165E1,-4.4195396E1,-2.2853031E1,1.2108672E1,4.5668518E1,7.999559E1,1.1551883E2],"categories":[],"categories_nodes":[],"categories_segments":[],"categories_sizes":[],"default_left":[0,0,0,0,0,0,0,0,0,0,0,0,0,0,0],"id":6,"left_children":[1,3,5,7,9,11,13,-1,-1,-1,-1,-1,-1,-1,-1],"loss_changes":[1.5338883E8,1.7323608E7,3.2829652E7,3.038384E6,8.17676E5,4.19886E6,2.339688E6,0E0,0E0,0E0,0E0,0E0,0E0,0E0,0E0],"parents":[2147483647,0,0,1,1,2,2,3,3,4,4,5,5,6,6],"right_children":[2,4,6,8,10,12,14,-1,-1,-1,-1,-1,-1,-1,-1],"split_conditions":[1.1423E3,7.674E2,1.5901E3,4.751E2,9.54E2,1.3641E3,1.8379E3,-1.1381946E2,-8.0172165E1,-4.4195396E1,-2.2853031E1,1.2108672E1,4.5668518E1,7.999559E1,1.1551883E2],"split_indices":[0,0,0,0,0,0,0,0,0,0,0,0,0,0,0],"split_type":[0,0,0,0,0,0,0,0,0,0,0,0,0,0,0],"sum_hessian":[4.917E3,1.823E3,3.094E3,1.095E3,7.28E2,2.074E3,1.02E3,5.58E2,5.37E2,4.03E2,3.25E2,1.594E3,4.8E2,7.69E2,2.51E2],"tree_param":{"num_deleted":"0","num_feature":"18","num_nodes":"15","size_leaf_vector":"1"}},{"base_weights":[2.6829678E-3,-2.0441444E0,4.1862645E0,-4.947039E0,-1.1326421E0,2.4388354E0,7.156907E0,-1.8131213E0,-1.3092892E0,-7.435273E-1,-1.6082282E-1,4.9252483E-1,1.0740033E0,1.8191463E0,2.9181368E0],"categories":[],"categories_nodes":[],"categories_segments":[],"categories_sizes":[],"default_left":[0,0,0,0,0,0,0,0,0,0,0,0,0,0,0],"id":7,"left_children":[1,3,5,7,9,11,13,-1,-1,-1,-1,-1,-1,-1,-1],"loss_changes":[4.212173E4,8.734118E3,8.37118E3,4.8148438E2,1.9217681E3,8.6187305E2,1.6878496E3,0E0,0E0,0E0,0E0,0E0,0E0,0E0,0E0],"parents":[2147483647,0,0,1,1,2,2,3,3,4,4,5,5,6,6],"right_children":[2,4,6,8,10,12,14,-1,-1,-1,-1,-1,-1,-1,-1],"split_conditions":[1.9138E1,1.1357E1,2.78E1,7.14E0,1.4871E1,2.3149E1,3.3233E1,-1.8131213E0,-1.3092892E0,-7.435273E-1,-1.6082282E-1,4.9252483E-1,1.0740033E0,1.8191463E0,2.9181368E0],"split_indices":[1,1,1,1,1,1,1,0,0,0,0,0,0,0,0],"split_type":[0,0,0,0,0,0,0,0,0,0,0,0,0,0,0],"sum_hessian":[4.917E3,3.302E3,1.615E3,7.88E2,2.514E3,1.018E3,5.97E2,3.84E2,4.04E2,8.43E2,1.671E3,5.38E2,4.8E2,3.64E2,2.33E2],"tree_param":{"num_deleted":"0","num_feature":"18","num_nodes":"15","size_leaf_vector":"1"}},{"base_weights":[1.7988483E-5,-3.5911318E-2,4.8449658E-2,-4.843602E-2,-2.0056058E-2,2.321508E-2,6.358424E-2,-2.3478514E-2,-1.39461225E-2,-8.490866E-3,-2.071244E-3,3.7532332E-3,1.0664066E-2,1.598042E-2,2.3163615E-2],"categories":[],"categories_nodes":[],"categories_segments":[],"categories_sizes":[],"default_left":[0,0,0,0,0,0,0,0,0,0,0,0,0,0,0],"id":8,"left_children":[1,3,5,7,9,11,13,-1,-1,-1,-1,-1,-1,-1,-1],"loss_changes":[8.559631E0,5.5982494E-1,7.98635E-1,1.6671324E-1,1.1627865E-1,9.440696E-2,1.6423893E-1,0E0,0E0,0E0,0E0,0E0,0E0,0E0,0E0],"parents":[2147483647,0,0,1,1,2,2,3,3,4,4,5,5,6,6],"right_children":[2,4,6,8,10,12,14,-1,-1,-1,-1,-1,-1,-1,-1],"split_conditions":[8.6303616E-1,7.811035E-1,9.467007E-1,7.3843247E-1,8.17929E-1,9.035056E-1,9.837678E-1,-2.3478514E-2,-1.39461225E-2,-8.490866E-3,-2.071244E-3,3.7532332E-3,1.0664066E-2,1.598042E-2,2.3163615E-2],"split_indices":[2,2,2,2,2,2,2,0,0,0,0,0,0,0,0],"split_type":[0,0,0,0,0,0,0,0,0,0,0,0,0,0,0],"sum_hessian":[4.917E3,2.823E3,2.094E3,1.576E3,1.247E3,7.86E2,1.308E3,2.12E2,1.364E3,8.23E2,4.24E2,3.83E2,4.03E2,5.77E2,7.31E2],"tree_param":{"num_deleted":"0","num_feature":"18","num_nodes":"15","size_leaf_vector":"1"}},{"base_weights":[-3.4992047E-2,-1.519672E2,9.740035E1,-2.284995E2,-8.684219E1,5.004316E1,2.003392E2,-8.002284E1,-6.1997593E1,-4.1457462E1,-1.8926195E1,1.0129021E1,3.41035E1,5.8151585E1,8.739226E1],"categories":[],"categories_nodes":[],"categories_segments":[],"categories_sizes":[],"default_left":[0,0,0,0,0,0,0,0,0,0,0,0,0,0,0],"id":9,"left_children":[1,3,5,7,9,11,13,-1,-1,-1,-1,-1,-1,-1,-1],"loss_changes":[7.281874E7,9.559724E6,1.4600036E7,6.6698E5,1.2388015E6,2.1357655E6,1.084432E6,0E0,0E0,0E0,0E0,0E0,0E0,0E0,0E0],"parents":[2147483647,0,0,1,1,2,2,3,3,4,4,5,5,6,6],"right_children":[2,4,6,8,10,12,14,-1,-1,-1,-1,-1,-1,-1,-1],"split_conditions":[1.1733E3,6.529E2,1.6171E3,4.422E2,8.831E2,1.3899E3,1.8792E3,-8.002284E1,-6.1997593E1,-4.1457462E1,-1.8926195E1,1.0129021E1,3.41035E1,5.8151585E1,8.739226E1],"split_indices":[0,0,0,0,0,0,0,0,0,0,0,0,0,0,0],"split_type":[0,0,0,0,0,0,0,0,0,0,0,0,0,0,0],"sum_hessian":[4.917E3,1.921E3,2.996E3,8.82E2,1.039E3,2.053E3,9.43E2,4.81E2,4.01E2,3.86E2,6.53E2,1.573E3,4.8E2,7.88E2,1.55E2],"tree_param":{"num_deleted":"0","num_feature":"18","num_nodes":"15","size_leaf_vector":"1"}},{"base_weights":[2.3013025E-3,-1.4807292E0,2.738487E0,-2.8487358E0,-5.767327E-1,1.4889627E0,4.7800274E0,-1.1857119E0,-6.67815E-1,-2.7662855E-1,-6.067831E-2,3.0526778E-1,6.842225E-1,1.2640686E0,2.157148E0],"categories":[],"categories_nodes":[],"categories_segments":[],"categories_sizes":[],"default_left":[0,0,0,0,0,0,0,0,0,0,0,0,0,0,0],"id":10,"left_children":[1,3,5,7,9,11,13,-1,-1,-1,-1,-1,-1,-1,-1],"loss_changes":[1.9960545E4,3.9433447E3,4.4034834E3,8.3949023E2,2.2290057E2,3.7981274E2,1.01119727E3,0E0,0E0,0E0,0E0,0E0,0E0,0E0,0E0],"parents":[2147483647,0,0,1,1,2,2,3,3,4,4,5,5,6,6],"right_children":[2,4,6,8,10,12,14,-1,-1,-1,-1,-1,-1,-1,-1],"split_conditions":[1.8517E1,1.3879E1,2.7274E1,8.108E0,1.6676E1,2.2799E1,3.4239E1,-1.1857119E0,-6.67815E-1,-2.7662855E-1,-6.067831E-2,3.0526778E-1,6.842225E-1,1.2640686E0,2.157148E0],"split_indices":[1,1,1,1,1,1,1,0,0,0,0,0,0,0,0],"split_type":[0,0,0,0,0,0,0,0,0,0,0,0,0,0,0],"sum_hessian":[4.917E3,3.189E3,1.728E3,1.268E3,1.921E3,1.073E3,6.55E2,5.58E2,7.1E2,1.074E3,8.47E2,6.12E2,4.61E2,4.81E2,1.74E2],"tree_param":{"num_deleted":"0","num_feature":"18","num_nodes":"15","size_leaf_vector":"1"}},{"base_weights":[1.3459827E-5,-2.2231258E-2,3.7011705E-2,-2.937451E-2,-3.3087428E-3,2.605718E-2,4.8864122E-2,-1.45640625E-2,-8.125898E-3,-3.4355212E-3,9.407045E-4,6.2266793E-3,1.0160397E-2,1.4416977E-2,2.286482E-2],"categories":[],"categories_nodes":[],"categories_segments":[],"categories_sizes":[],"default_left":[0,0,0,0,0,0,0,0,0,0,0,0,0,0,0],"id":11,"left_children":[1,3,5,7,9,11,13,-1,-1,-1,-1,-1,-1,-1,-1],"loss_changes":[4.0484133E0,4.1513956E-1,2.3853683E-1,1.3274622E-1,4.0426936E-2,3.693998E-2,6.099558E-2,0E0,0E0,0E0,0E0,0E0,0E0,0E0,0E0],"parents":[2147483647,0,0,1,1,2,2,3,3,4,4,5,5,6,6],"right_children":[2,4,6,8,10,12,14,-1,-1,-1,-1,-1,-1,-1,-1],"split_conditions":[8.913451E-1,8.0749357E-1,9.762765E-1,7.470045E-1,8.4175086E-1,9.416196E-1,1.0268205E0,-1.45640625E-2,-8.125898E-3,-3.4355212E-3,9.407045E-4,6.2266793E-3,1.0160397E-2,1.4416977E-2,2.286482E-2],"split_indices":[2,2,2,2,2,2,2,0,0,0,0,0,0,0,0],"split_type":[0,0,0,0,0,0,0,0,0,0,0,0,0,0,0],"sum_hessian":[4.917E3,3.071E3,1.846E3,2.229E3,8.42E2,9.61E2,8.85E2,3.85E2,1.844E3,3.81E2,4.61E2,4.81E2,4.8E2,7.87E2,9.8E1],"tree_param":{"num_deleted":"0","num_feature":"18","num_nodes":"15","size_leaf_vector":"1"}},{"base_weights":[-2.6556572E-2,-9.818453E1,7.164983E1,-1.4575797E2,-4.28358E1,3.9673252E1,1.4008182E2,-5.2114986E1,-3.392164E1,-2.0496935E1,-8.375694E0,8.215311E0,2.3037E1,3.382318E1,5.0342995E1],"categories":[],"categories_nodes":[],"categories_segments":[],"categories_sizes":[],"default_left":[0,0,0,0,0,0,0,0,0,0,0,0,0,0,0],"id":12,"left_children":[1,3,5,7,9,11,13,-1,-1,-1,-1,-1,-1,-1,-1],"loss_changes":[3.4608164E7,5.460132E6,6.215555E6,8.23086E5,3.4583162E5,8.802105E5,5.69748E5,0E0,0E0,0E0,0E0,0E0,0E0,0E0,0E0],"parents":[2147483647,0,0,1,1,2,2,3,3,4,4,5,5,6,6],"right_children":[2,4,6,8,10,12,14,-1,-1,-1,-1,-1,-1,-1,-1],"split_conditions":[1.1984E3,7.907E2,1.64E3,6.135E2,9.631E2,1.3775E3,1.7515E3,-5.2114986E1,-3.392164E1,-2.0496935E1,-8.375694E0,8.215311E0,2.3037E1,3.382318E1,5.0342995E1],"split_indices":[0,0,0,0,0,9,0,0,0,0,0,0,0,0,0],"split_type":[0,0,0,0,0,0,0,0,0,0,0,0,0,0,0],"sum_hessian":[4.917E3,2.075E3,2.842E3,1.115E3,9.6E2,1.938E3,9.04E2,7.3E2,3.85E2,4.03E2,5.57E2,1.381E3,5.57E2,3.45E2,5.59E2],"tree_param":{"num_deleted":"0","num_feature":"18","num_nodes":"15","size_leaf_vector":"1"}},{"base_weights":[2.028537E-3,-9.838395E-1,1.9481332E0,-2.4193914E0,-5.5552167E-1,1.1686597E0,3.553994E0,-1.0771788E0,-6.779552E-1,-3.8726234E-1,-8.793646E-2,2.41201E-1,5.3348744E-1,9.965397E-1,2.076825E0],"categories":[],"categories_nodes":[],"categories_segments":[],"categories_sizes":[],"default_left":[0,0,0,0,0,0,0,0,0,0,0,0,0,0,0],"id":13,"left_children":[1,3,5,7,9,11,13,-1,-1,-1,-1,-1,-1,-1,-1],"loss_changes":[9.437603E3,2.0062144E3,2.0662012E3,1.9212305E2,4.685899E2,2.3485486E2,6.1603174E2,0E0,0E0,0E0,0E0,0E0,0E0,0E0,0E0],"parents":[2147483647,0,0,1,1,2,2,3,3,4,4,5,5,6,6],"right_children":[2,4,6,8,10,12,14,-1,-1,-1,-1,-1,-1,-1,-1],"split_conditions":[1.8941E1,1.103E1,2.8383E1,6.315E0,1.4506E1,2.3649E1,3.9374E1,-1.0771788E0,-6.779552E-1,-3.8726234E-1,-8.793646E-2,2.41201E-1,5.3348744E-1,9.965397E-1,2.076825E0],"split_indices":[1,1,10,1,1,1,1,0,0,0,0,0,0,0,0],"split_type":[0,0,0,0,0,0,0,0,0,0,0,0,0,0,0],"sum_hessian":[4.917E3,3.264E3,1.653E3,7.49E2,2.515E3,1.114E3,5.39E2,1.54E2,5.95E2,7.29E2,1.786E3,6.33E2,4.81E2,4.8E2,5.9E1],"tree_param":{"num_deleted":"0","num_feature":"18","num_nodes":"15","size_leaf_vector":"1"}},{"base_weights":[1.5015596E-5,-1.7410621E-2,2.2365106E-2,-2.4248868E-2,-9.735706E-3,1.0370504E-2,2.9826827E-2,-1.4378758E-2,-7.03829E-3,-3.8309149E-3,-1.5640905E-3,1.7173364E-3,5.40185E-3,8.051659E-3,1.2598931E-2],"categories":[],"categories_nodes":[],"categories_segments":[],"categories_sizes":[],"default_left":[0,0,0,0,0,0,0,0,0,0,0,0,0,0,0],"id":14,"left_children":[1,3,5,7,9,11,13,-1,-1,-1,-1,-1,-1,-1,-1],"loss_changes":[1.9157761E0,1.4482683E-1,1.9256413E-1,5.7976842E-2,1.5088439E-2,2.7549788E-2,5.6473017E-2,0E0,0E0,0E0,0E0,0E0,0E0,0E0,0E0],"parents":[2147483647,0,0,1,1,2,2,3,3,4,4,5,5,6,6],"right_children":[2,4,6,8,10,12,14,-1,-1,-1,-1,-1,-1,-1,-1],"split_conditions":[8.5851645E-1,7.76699E-1,9.444565E-1,7.272092E-1,8.1214976E-1,9.070295E-1,1.0053282E0,-1.4378758E-2,-7.03829E-3,-3.8309149E-3,-1.5640905E-3,1.7173364E-3,5.40185E-3,8.051659E-3,1.2598931E-2],"split_indices":[2,2,2,2,2,2,2,0,0,0,0,0,0,0,0],"split_type":[0,0,0,0,0,0,0,0,0,0,0,0,0,0,0],"sum_hessian":[4.917E3,2.763E3,2.154E3,1.46E3,1.303E3,8.27E2,1.327E3,1.16E2,1.344E3,8.61E2,4.42E2,4.81E2,3.46E2,9.4E2,3.87E2],"tree_param":{"num_deleted":"0","num_feature":"18","num_nodes":"15","size_leaf_vector":"1"}},{"base_weights":[-1.8102E-2,-6.3702114E1,5.275204E1,-9.895798E1,-2.5831333E1,3.1348095E1,9.7720955E1,-3.998673E1,-2.6323364E1,-1.4071759E1,-5.74897E0,7.0677238E0,1.72378E1,2.8322153E1,4.9316463E1],"categories":[],"categories_nodes":[],"categories_segments":[],"categories_sizes":[],"default_left":[0,0,0,0,0,0,0,0,0,0,0,0,0,0,0],"id":15,"left_children":[1,3,5,7,9,11,13,-1,-1,-1,-1,-1,-1,-1,-1],"loss_changes":[1.6530862E7,2.97353E6,2.586095E6,4.85981E5,1.5285762E5,3.7862775E5,3.808275E5,0E0,0E0,0E0,0E0,0E0,0E0,0E0,0E0],"parents":[2147483647,0,0,1,1,2,2,3,3,4,4,5,5,6,6],"right_children":[2,4,6,8,10,12,14,-1,-1,-1,-1,-1,-1,-1,-1],"split_conditions":[1.2179E3,8.114E2,1.6535E3,4.313E2,9.415E2,1.4153E3,1.9064E3,-3.998673E1,-2.6323364E1,-1.4071759E1,-5.74897E0,7.0677238E0,1.72378E1,2.8322153E1,4.9316463E1],"split_indices":[0,0,0,0,0,0,0,0,0,0,0,0,0,0,0],"split_type":[0,0,0,0,0,0,0,0,0,0,0,0,0,0,0],"sum_hessian":[4.917E3,2.228E3,2.689E3,1.153E3,1.075E3,1.823E3,8.66E2,4.04E2,7.49E2,3.06E2,7.69E2,1.323E3,5E2,7.68E2,9.8E1],"tree_param":{"num_deleted":"0","num_feature":"18","num_nodes":"15","size_leaf_vector":"1"}},{"base_weights":[1.719076E-3,-7.535232E-1,1.2363187E0,-1.7020811E0,-4.6523187E-1,8.9321023E-1,3.099039E0,-8.202103E-1,-4.898774E-1,-2.4426001E-1,-6.5722845E-2,1.943773E-1,5.16626E-1,8.8373935E-1,2.0497892E0],"categories":[],"categories_nodes":[],"categories_segments":[],"categories_sizes":[],"default_left":[0,0,0,0,0,0,0,0,0,0,0,0,0,0,0],"id":16,"left_children":[1,3,5,7,9,11,13,-1,-1,-1,-1,-1,-1,-1,-1],"loss_changes":[4.586582E3,8.338108E2,1.1904597E3,8.9427246E1,1.865505E2,3.2442017E2,2.6964648E2,0E0,0E0,0E0,0E0,0E0,0E0,0E0,0E0],"parents":[2147483647,0,0,1,1,2,2,3,3,4,4,5,5,6,6],"right_children":[2,4,6,8,10,12,14,-1,-1,-1,-1,-1,-1,-1,-1],"split_conditions":[1.8068E1,1.0455E1,3.2227E1,5.894E0,1.533E1,2.6647E1,4.1747E1,-8.202103E-1,-4.898774E-1,-2.4426001E-1,-6.5722845E-2,1.943773E-1,5.16626E-1,8.8373935E-1,2.0497892E0],"split_indices":[1,1,1,1,1,1,1,0,0,0,0,0,0,0,0],"split_type":[0,0,0,0,0,0,0,0,0,0,0,0,0,0,0],"sum_hessian":[4.917E3,3.051E3,1.866E3,7.1E2,2.341E3,1.577E3,2.89E2,9.6E1,6.14E2,1.057E3,1.284E3,1.154E3,4.23E2,2.68E2,2.1E1],"tree_param":{"num_deleted":"0","num_feature":"18","num_nodes":"15","size_leaf_vector":"1"}},{"base_weights":[1.0491278E-5,-1.0260453E-2,1.7980333E-2,-1.6052011E-2,-3.948191E-3,1.2876285E-2,2.4147319E-2,-1.0534765E-2,-4.6980893E-3,-2.1907245E-3,4.505136E-4,2.4315722E-3,4.3960307E-3,7.0100706E-3,1.2952175E-2],"categories":[],"categories_nodes":[],"categories_segments":[],"categories_sizes":[],"default_left":[0,0,0,0,0,0,0,0,0,0,0,0,0,0,0],"id":17,"left_children":[1,3,5,7,9,11,13,-1,-1,-1,-1,-1,-1,-1,-1],"loss_changes":[9.0788627E-1,1.1436263E-1,5.600071E-2,3.1431258E-2,2.4309933E-2,5.413443E-3,2.4837017E-2,0E0,0E0,0E0,0E0,0E0,0E0,0E0,0E0],"parents":[2147483647,0,0,1,1,2,2,3,3,4,4,5,5,6,6],"right_children":[2,4,6,8,10,12,14,-1,-1,-1,-1,-1,-1,-1,-1],"split_conditions":[8.970219E-1,7.837973E-1,9.809692E-1,7.227105E-1,8.3829325E-1,9.134756E-1,1.0318853E0,-1.0534765E-2,-4.6980893E-3,-2.1907245E-3,4.505136E-4,2.4315722E-3,4.3960307E-3,7.0100706E-3,1.2952175E-2],"split_indices":[2,2,2,2,2,2,11,0,0,0,0,0,0,0,0],"split_type":[0,0,0,0,0,0,0,0,0,0,0,0,0,0,0],"sum_hessian":[4.917E3,3.129E3,1.788E3,1.631E3,1.498E3,9.8E2,8.08E2,9.7E1,1.534E3,9.6E2,5.38E2,1.73E2,8.07E2,7.3E2,7.8E1],"tree_param":{"num_deleted":"0","num_feature":"18","num_nodes":"15","size_leaf_vector":"1"}},{"base_weights":[-9.185766E-3,-4.178161E1,3.7984913E1,-7.757085E1,-2.2243387E1,2.6577202E1,7.7284775E1,-3.1364124E1,-2.1978409E1,-1.1866481E1,-3.677594E0,5.457028E0,1.3001879E1,2.2608532E1,3.8756786E1],"categories":[],"categories_nodes":[],"categories_segments":[],"categories_sizes":[],"default_left":[0,0,0,0,0,0,0,0,0,0,0,0,0,0,0],"id":18,"left_children":[1,3,5,7,9,11,13,-1,-1,-1,-1,-1,-1,-1,-1],"loss_changes":[7.8069715E6,1.636636E6,1.152822E6,1.342865E5,2.4722881E5,2.7127962E5,1.3568325E5,0E0,0E0,0E0,0E0,0E0,0E0,0E0,0E0],"parents":[2147483647,0,0,1,1,2,2,3,3,4,4,5,5,6,6],"right_children":[2,4,6,8,10,12,14,-1,-1,-1,-1,-1,-1,-1,-1],"split_conditions":[1.2291E3,6.372E2,1.7459E3,4.1E2,9.354E2,1.4228E3,1.9344E3,-3.1364124E1,-2.1978409E1,-1.1866481E1,-3.677594E0,5.457028E0,1.3001879E1,2.2608532E1,3.8756786E1],"split_indices":[0,0,0,0,0,0,0,0,0,0,0,0,0,0,0],"split_type":[0,0,0,0,0,0,0,0,0,0,0,0,0,0,0],"sum_hessian":[4.917E3,2.342E3,2.575E3,8.26E2,1.516E3,1.997E3,5.78E2,2.11E2,6.15E2,6.14E2,9.02E2,1.229E3,7.68E2,5.19E2,5.9E1],"tree_param":{"num_deleted":"0","num_feature":"18","num_nodes":"15","size_leaf_vector":"1"}},{"base_weights":[1.5896395E-3,-3.8130042E-1,1.1974376E0,-9.1351116E-1,-6.7485265E-2,9.0699214E-1,2.1822488E0,-4.810628E-1,-2.404715E-1,-6.8950124E-2,6.658971E-2,2.173207E-1,3.587249E-1,6.182274E-1,1.4340554E0],"categories":[],"categories_nodes":[],"categories_segments":[],"categories_sizes":[],"default_left":[0,0,0,0,0,0,0,0,0,0,0,0,0,0,0],"id":19,"left_children":[1,3,5,7,9,11,13,-1,-1,-1,-1,-1,-1,-1,-1],"loss_changes":[2.252302E3,6.2223914E2,3.392594E2,1.2581494E2,9.9274025E1,4.5739746E1,1.3115454E2,0E0,0E0,0E0,0E0,0E0,0E0,0E0,0E0],"parents":[2147483647,0,0,1,1,2,2,3,3,4,4,5,5,6,6],"right_children":[2,4,6,8,10,12,14,-1,-1,-1,-1,-1,-1,-1,-1],"split_conditions":[2.2163E1,1.4229E1,3.2573E1,6.807E0,1.7713E1,2.6647E1,4.1747E1,-4.810628E-1,-2.404715E-1,-6.8950124E-2,6.658971E-2,2.173207E-1,3.587249E-1,6.182274E-1,1.4340554E0],"split_indices":[1,1,1,1,1,1,1,0,0,0,0,0,0,0,0],"split_type":[0,0,0,0,0,0,0,0,0,0,0,0,0,0,0],"sum_hessian":[4.917E3,3.725E3,1.192E3,1.381E3,2.344E3,9.22E2,2.7E2,2.68E2,1.113E3,1.519E3,8.25E2,4.8E2,4.42E2,2.49E2,2.1E1],"tree_param":{"num_deleted":"0","num_feature":"18","num_nodes":"15","size_leaf_vector":"1"}},{"base_weights":[9.192847E-6,-8.371593E-3,1.04354685E-2,-1.3140293E-2,-5.2557485E-3,6.167302E-3,1.5866112E-2,-8.766113E-3,-3.8629675E-3,-2.0947508E-3,-1.0667765E-3,9.021831E-4,2.8003466E-3,4.7212495E-3,1.0994462E-2],"categories":[],"categories_nodes":[],"categories_segments":[],"categories_sizes":[],"default_left":[0,0,0,0,0,0,0,0,0,0,0,0,0,0,0],"id":20,"left_children":[1,3,5,7,9,11,13,-1,-1,-1,-1,-1,-1,-1,-1],"loss_changes":[4.298241E-1,4.045014E-2,5.0710306E-2,1.3366371E-2,4.2924583E-3,1.1053532E-2,1.53488815E-2,0E0,0E0,0E0,0E0,0E0,0E0,0E0,0E0],"parents":[2147483647,0,0,1,1,2,2,3,3,4,4,5,5,6,6],"right_children":[2,4,6,8,10,12,14,-1,-1,-1,-1,-1,-1,-1,-1],"split_conditions":[8.545548E-1,7.6369107E-1,9.724788E-1,7.156762E-1,7.98212E-1,9.113278E-1,1.043188E0,-8.766113E-3,-3.8629675E-3,-2.0947508E-3,-1.0667765E-3,9.021831E-4,2.8003466E-3,4.7212495E-3,1.0994462E-2],"split_indices":[11,2,2,2,2,2,2,0,0,0,0,0,0,0,0],"split_type":[0,0,0,0,0,0,0,0,0,0,0,0,0,0,0],"sum_hessian":[4.917E3,2.726E3,2.191E3,1.076E3,1.65E3,1.228E3,9.63E2,5.8E1,1.018E3,9.41E2,7.09E2,5.57E2,6.71E2,9.23E2,4E1],"tree_param":{"num_deleted":"0","num_feature":"18","num_nodes":"15","size_leaf_vector":"1"}},{"base_weights":[-4.064342E-3,-3.6823547E1,2.067329E1,-5.3773388E1,-2.2548811E1,1.0306777E1,4.5597816E1,-2.2823736E1,-1.5497527E1,-9.919793E0,-5.3528666E0,2.0383239E-1,6.6110578E0,1.2460406E1,2.2373413E1],"categories":[],"categories_nodes":[],"categories_segments":[],"categories_sizes":[],"default_left":[0,0,0,0,0,0,0,0,0,0,0,0,0,0,0],"id":21,"left_children":[1,3,5,7,9,11,13,-1,-1,-1,-1,-1,-1,-1,-1],"loss_changes":[3.7449798E6,4.26805E5,8.1342825E5,6.502375E4,4.7278375E4,2.3007328E5,1.3875588E5,0E0,0E0,0E0,0E0,0E0,0E0,0E0,0E0],"parents":[2147483647,0,0,1,1,2,2,3,3,4,4,5,5,6,6],"right_children":[2,4,6,8,10,12,14,-1,-1,-1,-1,-1,-1,-1,-1],"split_conditions":[1.125E3,6.328E2,1.627E3,4.024E2,8.25E2,1.2933E3,1.87056E3,-2.2823736E1,-1.5497527E1,-9.919793E0,-5.3528666E0,2.0383239E-1,6.6110578E0,1.2460406E1,2.2373413E1],"split_indices":[0,0,9,0,0,0,6,0,0,0,0,0,0,0,0],"split_type":[0,0,0,0,0,0,0,0,0,0,0,0,0,0,0],"sum_hessian":[4.917E3,1.768E3,3.149E3,8.07E2,9.61E2,2.225E3,9.24E2,1.54E2,6.53E2,3.65E2,5.96E2,1.17E3,1.055E3,7.5E2,1.74E2],"tree_param":{"num_deleted":"0","num_feature":"18","num_nodes":"15","size_leaf_vector":"1"}},{"base_weights":[1.4767147E-3,-2.5891235E-1,8.3210325E-1,-6.675435E-1,-6.3363865E-2,7.5941014E-1,2.8223922E0,-2.9690507E-1,-1.486754E-1,-6.9034435E-2,2.6201922E-2,1.9123083E-1,3.9107335E-1,1.5101231E0,5.4549783E-1],"categories":[],"categories_nodes":[],"categories_segments":[],"categories_sizes":[],"default_left":[0,0,0,0,0,0,0,0,0,0,0,0,0,0,0],"id":22,"left_children":[1,3,5,7,9,11,13,-1,-1,-1,-1,-1,-1,-1,-1],"loss_changes":[1.0639103E3,2.9921014E2,1.6771124E2,6.480066E1,5.7982567E1,8.240607E1,7.99198E1,0E0,0E0,0E0,0E0,0E0,0E0,0E0,0E0],"parents":[2147483647,0,0,1,1,2,2,3,3,4,4,5,5,6,6],"right_children":[2,4,6,8,10,12,14,-1,-1,-1,-1,-1,-1,-1,-1],"split_conditions":[2.239E1,1.3686E1,4.0207798E1,7.55E0,1.6858E1,3.1944E1,1.5287E3,-2.9690507E-1,-1.486754E-1,-6.9034435E-2,2.6201922E-2,1.9123083E-1,3.9107335E-1,1.5101231E0,5.4549783E-1],"split_indices":[1,1,7,1,1,10,6,0,0,0,0,0,0,0,0],"split_type":[0,0,0,0,0,0,0,0,0,0,0,0,0,0,0],"sum_hessian":[4.917E3,3.744E3,1.173E3,1.211E3,2.533E3,1.133E3,4E1,5E2,7.11E2,1.227E3,1.306E3,8.64E2,2.69E2,1.3E1,2.7E1],"tree_param":{"num_deleted":"0","num_feature":"18","num_nodes":"15","size_leaf_vector":"1"}},{"base_weights":[7.046086E-6,-4.904771E-3,8.466132E-3,-8.750039E-3,-2.5226735E-3,6.2872567E-3,1.2860736E-2,-4.8080496E-3,-2.44354E-3,-1.2662753E-3,-5.333346E-5,1.4641924E-3,2.271624E-3,3.837385E-3,9.36565E-3],"categories":[],"categories_nodes":[],"categories_segments":[],"categories_sizes":[],"default_left":[0,0,0,0,0,0,0,0,0,0,0,0,0,0,0],"id":23,"left_children":[1,3,5,7,9,11,13,-1,-1,-1,-1,-1,-1,-1,-1],"loss_changes":[2.043819E-1,2.8483242E-2,1.722169E-2,7.5353086E-3,6.7924075E-3,1.8082485E-3,6.374851E-3,0E0,0E0,0E0,0E0,0E0,0E0,0E0,0E0],"parents":[2147483647,0,0,1,1,2,2,3,3,4,4,5,5,6,6],"right_children":[2,4,6,8,10,12,14,-1,-1,-1,-1,-1,-1,-1,-1],"split_conditions":[8.954956E-1,7.665185E-1,9.922604E-1,7.3293364E-1,8.1446487E-1,9.416196E-1,1.0513036E0,-4.8080496E-3,-2.44354E-3,-1.2662753E-3,-5.333346E-5,1.4641924E-3,2.271624E-3,3.837385E-3,9.36565E-3],"split_indices":[2,2,2,2,2,11,2,0,0,0,0,0,0,0,0],"split_type":[0,0,0,0,0,0,0,0,0,0,0,0,0,0,0],"sum_hessian":[4.917E3,3.111E3,1.806E3,1.189E3,1.922E3,1.209E3,5.97E2,1.54E2,1.035E3,1.173E3,7.49E2,4.41E2,7.68E2,5.76E2,2.1E1],"tree_param":{"num_deleted":"0","num_feature":"18","num_nodes":"15","size_leaf_vector":"1"}},{"base_weights":[-5.2337027E-3,-2.1379417E1,1.7147373E1,-3.7564487E1,-1.2611696E1,1.1503328E1,3.7240948E1,-1.4852459E1,-1.0332556E1,-6.8715334E0,-2.8100977E0,1.6947724E0,5.6398926E0,1.1073042E1,2.8140635E1],"categories":[],"categories_nodes":[],"categories_segments":[],"categories_sizes":[],"default_left":[0,0,0,0,0,0,0,0,0,0,0,0,0,0,0],"id":24,"left_children":[1,3,5,7,9,11,13,-1,-1,-1,-1,-1,-1,-1,-1],"loss_changes":[1.8034184E6,3.103007E5,3.0906488E5,3.34915E4,4.810058E4,8.362244E4,6.0951938E4,0E0,0E0,0E0,0E0,0E0,0E0,0E0,0E0],"parents":[2147483647,0,0,1,1,2,2,3,3,4,4,5,5,6,6],"right_children":[2,4,6,8,10,12,14,-1,-1,-1,-1,-1,-1,-1,-1],"split_conditions":[1.212E3,6.246E2,1.7379E3,4.162E2,8.25E2,1.3339E3,1.9651E3,-1.4852459E1,-1.0332556E1,-6.8715334E0,-2.8100977E0,1.6947724E0,5.6398926E0,1.1073042E1,2.8140635E1],"split_indices":[0,0,0,0,0,0,0,0,0,0,0,0,0,0,0],"split_type":[0,0,0,0,0,0,0,0,0,0,0,0,0,0,0],"sum_hessian":[4.917E3,2.189E3,2.728E3,7.68E2,1.421E3,2.131E3,5.97E2,2.5E2,5.18E2,4.04E2,1.017E3,1.092E3,1.039E3,5.76E2,2.1E1],"tree_param":{"num_deleted":"0","num_feature":"18","num_nodes":"15","size_leaf_vector":"1"}},{"base_weights":[1.4491635E-3,-2.4861482E-1,4.173642E-1,-5.846057E-1,-1.4718571E-1,2.8679463E-1,9.789648E-1,-3.923448E-1,-1.6489175E-1,-7.759626E-2,-1.9249886E-2,6.393316E-2,1.6630898E-1,2.6373273E-1,6.3365436E-1],"categories":[],"categories_nodes":[],"categories_segments":[],"categories_sizes":[],"default_left":[0,0,0,0,0,0,0,0,0,0,0,0,0,0,0],"id":25,"left_children":[1,3,5,7,9,11,13,-1,-1,-1,-1,-1,-1,-1,-1],"loss_changes":[5.1160217E2,1.0460542E2,1.3515598E2,2.7930252E1,2.0169674E1,3.0212387E1,4.9042572E1,0E0,0E0,0E0,0E0,0E0,0E0,0E0,0E0],"parents":[2147483647,0,0,1,1,2,2,3,3,4,4,5,5,6,6],"right_children":[2,4,6,8,10,12,14,-1,-1,-1,-1,-1,-1,-1,-1],"split_conditions":[1.813E1,1.05054E1,3.1467E1,5.6044E0,1.5436E1,2.6321E1,4.0354E1,-3.923448E-1,-1.6489175E-1,-7.759626E-2,-1.9249886E-2,6.393316E-2,1.6630898E-1,2.6373273E-1,6.3365436E-1],"split_indices":[1,7,1,7,1,1,1,0,0,0,0,0,0,0,0],"split_type":[0,0,0,0,0,0,0,0,0,0,0,0,0,0,0],"sum_hessian":[4.917E3,3.071E3,1.846E3,7.11E2,2.36E3,1.499E3,3.47E2,5.8E1,6.53E2,1.094E3,1.266E3,1.115E3,3.84E2,3.07E2,4E1],"tree_param":{"num_deleted":"0","num_feature":"18","num_nodes":"15","size_leaf_vector":"1"}},{"base_weights":[6.537168E-6,-3.9718887E-3,5.034034E-3,-8.294397E-3,-2.9608079E-3,4.3259384E-3,1.3043923E-2,-7.0426166E-3,-2.418806E-3,-1.2638447E-3,-6.786559E-4,7.842146E-4,1.8541468E-3,3.7309641E-3,6.552306E-3],"categories":[],"categories_nodes":[],"categories_segments":[],"categories_sizes":[],"default_left":[0,0,0,0,0,0,0,0,0,0,0,0,0,0,0],"id":26,"left_children":[1,3,5,7,9,11,13,-1,-1,-1,-1,-1,-1,-1,-1],"loss_changes":[9.838748E-2,1.197657E-2,1.2268323E-2,4.282221E-3,1.8814541E-3,5.723417E-3,1.3793409E-3,0E0,0E0,0E0,0E0,0E0,0E0,0E0,0E0],"parents":[2147483647,0,0,1,1,2,2,3,3,4,4,5,5,6,6],"right_children":[2,4,6,8,10,12,14,-1,-1,-1,-1,-1,-1,-1,-1],"split_conditions":[8.56531E-1,7.508409E-1,1.0186411E0,7.0502967E-1,7.773088E-1,9.510224E-1,1.0513036E0,-7.0426166E-3,-2.418806E-3,-1.2638447E-3,-6.786559E-4,7.842146E-4,1.8541468E-3,3.7309641E-3,6.552306E-3],"split_indices":[2,2,11,2,17,2,2,0,0,0,0,0,0,0,0],"split_type":[0,0,0,0,0,0,0,0,0,0,0,0,0,0,0],"sum_hessian":[4.917E3,2.745E3,2.172E3,5.19E2,2.226E3,1.997E3,1.75E2,2E1,4.99E2,9.61E2,1.265E3,9.21E2,1.076E3,1.54E2,2.1E1],"tree_param":{"num_deleted":"0","num_feature":"18","num_nodes":"15","size_leaf_vector":"1"}},{"base_weights":[-1.2216277E-3,-1.7985384E1,9.755003E0,-2.6275257E1,-1.1907499E1,3.20006E0,1.8938398E1,-1.302739E1,-7.6884375E0,-3.46984E0,-6.9813294E0,-1.6061203E-1,2.6021857E0,4.6309247E0,9.980741E0],"categories":[],"categories_nodes":[],"categories_segments":[],"categories_sizes":[],"default_left":[0,0,0,0,0,0,0,0,0,0,0,0,0,0,0],"id":27,"left_children":[1,3,5,7,9,11,13,-1,-1,-1,-1,-1,-1,-1,-1],"loss_changes":[8.630756E5,8.6853E4,1.9190644E5,1.9369062E4,8.813453E3,3.5024457E4,7.1185875E4,0E0,0E0,0E0,0E0,0E0,0E0,0E0,0E0],"parents":[2147483647,0,0,1,1,2,2,3,3,4,4,5,5,6,6],"right_children":[2,4,6,8,10,12,14,-1,-1,-1,-1,-1,-1,-1,-1],"split_conditions":[1.1133E3,6.127E2,1.4341E3,3.922E2,1.0882E3,1.2813E3,1.8126E3,-1.302739E1,-7.6884375E0,-3.46984E0,-6.9813294E0,-1.6061203E-1,2.6021857E0,4.6309247E0,9.980741E0],"split_indices":[0,12,0,0,0,0,0,0,0,0,0,0,0,0,0],"split_type":[0,0,0,0,0,0,0,0,0,0,0,0,0,0,0],"sum_hessian":[4.917E3,1.729E3,3.188E3,7.3E2,9.99E2,1.861E3,1.327E3,7.7E1,6.53E2,9.22E2,7.7E1,1.075E3,7.86E2,9.99E2,3.28E2],"tree_param":{"num_deleted":"0","num_feature":"18","num_nodes":"15","size_leaf_vector":"1"}},{"base_weights":[1.0894373E-3,-1.21770464E-1,4.192741E-1,-3.0463827E-1,-1.9452523E-2,3.699186E-1,1.2825878E0,-1.9631134E-1,-7.924506E-2,-2.3109104E-2,2.5892906E-2,7.467322E-2,1.4532012E-1,8.1740946E-1,2.210211E-1],"categories":[],"categories_nodes":[],"categories_segments":[],"categories_sizes":[],"default_left":[0,0,0,0,0,0,0,0,0,0,0,0,0,0,0],"id":28,"left_children":[1,3,5,7,9,11,13,-1,-1,-1,-1,-1,-1,-1,-1],"loss_changes":[2.5272867E2,7.113199E1,4.7120087E1,2.2839256E1,1.340017E1,1.2781128E1,4.395366E1,0E0,0E0,0E0,0E0,0E0,0E0,0E0,0E0],"parents":[2147483647,0,0,1,1,2,2,3,3,4,4,5,5,6,6],"right_children":[2,4,6,8,10,12,14,-1,-1,-1,-1,-1,-1,-1,-1],"split_conditions":[2.2799E1,1.4189E1,3.9374E1,6.55E0,1.7815E1,9.5868087E-1,1.5287E3,-1.9631134E-1,-7.924506E-2,-2.3109104E-2,2.5892906E-2,7.467322E-2,1.4532012E-1,8.1740946E-1,2.210211E-1],"split_indices":[13,1,16,1,1,17,6,0,0,0,0,0,0,0,0],"split_type":[0,0,0,0,0,0,0,0,0,0,0,0,0,0,0],"sum_hessian":[4.917E3,3.801E3,1.116E3,1.363E3,2.438E3,1.057E3,5.9E1,1.92E2,1.171E3,1.593E3,8.45E2,4.34E2,6.23E2,1.7E1,4.2E1],"tree_param":{"num_deleted":"0","num_feature":"18","num_nodes":"15","size_leaf_vector":"1"}},{"base_weights":[4.79312E-6,-2.342684E-3,4.111891E-3,-5.411057E-3,-1.5917333E-3,3.6219903E-3,9.901204E-3,-4.9319E-3,-1.5859919E-3,-7.246033E-4,-5.6897294E-5,9.309491E-4,1.6489164E-3,5.6106676E-3,2.7687978E-3],"categories":[],"categories_nodes":[],"categories_segments":[],"categories_sizes":[],"default_left":[0,0,0,0,0,0,0,0,0,0,0,0,0,0,0],"id":29,"left_children":[1,3,5,7,9,11,13,-1,-1,-1,-1,-1,-1,-1,-1],"loss_changes":[4.7425643E-2,7.203521E-3,5.038079E-3,2.2637956E-3,2.522993E-3,1.7572381E-3,1.0583745E-3,0E0,0E0,0E0,0E0,0E0,0E0,0E0,0E0],"parents":[2147483647,0,0,1,1,2,2,3,3,4,4,5,5,6,6],"right_children":[2,4,6,8,10,12,14,-1,-1,-1,-1,-1,-1,-1,-1],"split_conditions":[8.970219E-1,7.5300074E-1,1.0224949E0,7.0502967E-1,8.100445E-1,9.908839E-1,1.4381E1,-4.9319E-3,-1.5859919E-3,-7.246033E-4,-5.6897294E-5,9.309491E-4,1.6489164E-3,5.6106676E-3,2.7687978E-3],"split_indices":[2,2,17,2,2,2,16,0,0,0,0,0,0,0,0],"split_type":[0,0,0,0,0,0,0,0,0,0,0,0,0,0,0],"sum_hessian":[4.917E3,3.129E3,1.788E3,6.14E2,2.515E3,1.65E3,1.38E2,2E1,5.94E2,1.672E3,8.43E2,1.172E3,4.78E2,1.5E1,1.23E2],"tree_param":{"num_deleted":"0","num_feature":"18","num_nodes":"15","size_leaf_vector":"1"}},{"base_weights":[-3.7054843E-3,-9.519433E0,8.908861E0,-1.5628075E1,-3.5749788E0,6.193947E0,1.895263E1,-7.087439E0,-4.140803E0,-2.2183306E0,-6.503075E-1,1.148804E0,2.6348083E0,5.4981356E0,1.6689413E1],"categories":[],"categories_nodes":[],"categories_segments":[],"categories_sizes":[],"default_left":[0,0,0,0,0,0,0,0,0,0,0,0,0,0,0],"id":30,"left_children":[1,3,5,7,9,11,13,-1,-1,-1,-1,-1,-1,-1,-1],"loss_changes":[4.1717822E5,8.633164E4,6.9143234E4,1.9675531E4,6.311123E3,1.1057477E4,2.6333281E4,0E0,0E0,0E0,0E0,0E0,0E0,0E0,0E0],"parents":[2147483647,0,0,1,1,2,2,3,3,4,4,5,5,6,6],"right_children":[2,4,6,8,10,12,14,-1,-1,-1,-1,-1,-1,-1,-1],"split_conditions":[1.2336E3,8.25E2,1.7598E3,4.227E2,9.777E2,1.3368E3,1.9651E3,-7.087439E0,-4.140803E0,-2.2183306E0,-6.503075E-1,1.148804E0,2.6348083E0,5.4981356E0,1.6689413E1],"split_indices":[0,0,0,0,0,0,0,0,0,0,0,0,0,0,0],"split_type":[0,0,0,0,0,0,0,0,0,0,0,0,0,0,0],"sum_hessian":[4.917E3,2.378E3,2.539E3,1.172E3,1.206E3,2E3,5.39E2,3.07E2,8.65E2,3.64E2,8.42E2,9.24E2,1.076E3,5.18E2,2.1E1],"tree_param":{"num_deleted":"0","num_feature":"18","num_nodes":"15","size_leaf_vector":"1"}},{"base_weights":[9.4713096E-4,-8.543366E-2,2.830886E-1,-2.9178515E-1,-3.739657E-2,2.4083565E-1,8.467959E-1,-2.4661428E-1,-8.247231E-2,-2.754712E-2,8.324405E-3,7.818402E-2,-8.051948E-1,-1.7650339E-1,2.9836634E-1],"categories":[],"categories_nodes":[],"categories_segments":[],"categories_sizes":[],"default_left":[0,0,0,0,0,0,0,0,0,0,0,0,0,0,0],"id":31,"left_children":[1,3,5,7,9,11,13,-1,-1,-1,-1,-1,-1,-1,-1],"loss_changes":[1.1988373E2,3.7319664E1,2.7258568E1,1.018602E1,9.785752E0,2.351574E1,1.1942135E1,0E0,0E0,0E0,0E0,0E0,0E0,0E0,0E0],"parents":[2147483647,0,0,1,1,2,2,3,3,4,4,5,5,6,6],"right_children":[2,4,6,8,10,12,14,-1,-1,-1,-1,-1,-1,-1,-1],"split_conditions":[2.2498E1,1.0455E1,3.7857E1,5.2708E0,1.6825E1,3.9374E1,-5.1515173E-2,-2.4661428E-1,-8.247231E-2,-2.754712E-2,8.324405E-3,7.818402E-2,-8.051948E-1,-1.7650339E-1,2.9836634E-1],"split_indices":[10,1,1,7,1,10,4,0,0,0,0,0,0,0,0],"split_type":[0,0,0,0,0,0,0,0,0,0,0,0,0,0,0],"sum_hessian":[4.917E3,3.765E3,1.152E3,7.1E2,3.055E3,1.073E3,7.9E1,3.9E1,6.71E2,1.711E3,1.344E3,1.071E3,2E0,5E0,7.4E1],"tree_param":{"num_deleted":"0","num_feature":"18","num_nodes":"15","size_leaf_vector":"1"}},{"base_weights":[4.038778E-6,-1.9594028E-3,2.367732E-3,-3.990737E-3,-1.4712787E-3,1.8446647E-3,5.387649E-3,-3.6302449E-3,-1.1536208E-3,-6.866564E-4,-3.2590496E-4,2.1452524E-4,7.63467E-4,1.4387575E-3,2.822337E-3],"categories":[],"categories_nodes":[],"categories_segments":[],"categories_sizes":[],"default_left":[0,0,0,0,0,0,0,0,0,0,0,0,0,0,0],"id":32,"left_children":[1,3,5,7,9,11,13,-1,-1,-1,-1,-1,-1,-1,-1],"loss_changes":[2.282895E-2,2.6584044E-3,3.5157744E-3,1.2323437E-3,6.6899834E-4,1.2857458E-3,9.1999304E-4,0E0,0E0,0E0,0E0,0E0,0E0,0E0,0E0],"parents":[2147483647,0,0,1,1,2,2,3,3,4,4,5,5,6,6],"right_children":[2,4,6,8,10,12,14,-1,-1,-1,-1,-1,-1,-1,-1],"split_conditions":[8.5055715E-1,7.508409E-1,1.0081357E0,7.0502967E-1,-2.5901406E-3,9.1608655E-1,1.0379905E0,-3.6302449E-3,-1.1536208E-3,-6.866564E-4,-3.2590496E-4,2.1452524E-4,7.63467E-4,1.4387575E-3,2.822337E-3],"split_indices":[14,2,11,11,4,2,2,0,0,0,0,0,0,0,0],"split_type":[0,0,0,0,0,0,0,0,0,0,0,0,0,0,0],"sum_hessian":[4.917E3,2.686E3,2.231E3,5.19E2,2.167E3,1.903E3,3.28E2,2E1,4.99E2,8.22E2,1.345E3,6.35E2,1.268E3,2.69E2,5.9E1],"tree_param":{"num_deleted":"0","num_feature":"18","num_nodes":"15","size_leaf_vector":"1"}},{"base_weights":[-1.2550183E-4,-6.636853E0,6.0363083E0,-1.1867535E1,-3.2285533E0,5.3615227E0,2.7296791E1,-7.537134E0,-3.4759445E0,-1.7292602E0,-4.7206745E-1,1.0835546E0,2.948537E0,1.58772955E1,7.047965E0],"categories":[],"categories_nodes":[],"categories_segments":[],"categories_sizes":[],"default_left":[0,0,0,0,0,0,0,0,0,0,0,0,0,0,0],"id":33,"left_children":[1,3,5,7,9,11,13,-1,-1,-1,-1,-1,-1,-1,-1],"loss_changes":[1.9706581E5,4.1732062E4,3.6809633E4,8.913266E3,5.554742E3,1.9174047E4,7.8347734E3,0E0,0E0,0E0,0E0,0E0,0E0,0E0,0E0],"parents":[2147483647,0,0,1,1,2,2,3,3,4,4,5,5,6,6],"right_children":[2,4,6,8,10,12,14,-1,-1,-1,-1,-1,-1,-1,-1],"split_conditions":[1.22884E3,6.607E2,1.92312E3,3.881E2,9.777E2,1.6455E3,7.5159717E-1,-7.537134E0,-3.4759445E0,-1.7292602E0,-4.7206745E-1,1.0835546E0,2.948537E0,1.58772955E1,7.047965E0],"split_indices":[6,12,6,0,0,9,17,0,0,0,0,0,0,0,0],"split_type":[0,0,0,0,0,0,0,0,0,0,0,0,0,0,0],"sum_hessian":[4.917E3,2.342E3,2.575E3,9.23E2,1.419E3,2.497E3,7.8E1,5.7E1,8.66E2,6.13E2,8.06E2,1.69E3,8.07E2,1.2E1,6.6E1],"tree_param":{"num_deleted":"0","num_feature":"18","num_nodes":"15","size_leaf_vector":"1"}},{"base_weights":[4.5543688E-4,-5.5247728E-2,2.1820876E-1,-1.3666596E-1,6.6637243E-3,1.9707467E-1,1.1506786E0,-7.63909E-2,-2.9685222E-2,5.019618E-2,-6.7819636E-3,4.6660267E-2,1.17505945E-1,8.036496E-1,-5.3896885E-3],"categories":[],"categories_nodes":[],"categories_segments":[],"categories_sizes":[],"default_left":[0,0,0,0,0,0,0,0,0,0,0,0,0,0,0],"id":34,"left_children":[1,3,5,7,9,11,13,-1,-1,-1,-1,-1,-1,-1,-1],"loss_changes":[5.9665176E1,1.9745415E1,1.951955E1,7.57584E0,9.603016E0,8.386162E0,3.6091255E1,0E0,0E0,0E0,0E0,0E0,0E0,0E0,0E0],"parents":[2147483647,0,0,1,1,2,2,3,3,4,4,5,5,6,6],"right_children":[2,4,6,8,10,12,14,-1,-1,-1,-1,-1,-1,-1,-1],"split_conditions":[2.3842E1,1.5128E1,4.1747E1,7.458E0,1.6121E1,1.0102234E0,1.5287E3,-7.63909E-2,-2.9685222E-2,5.019618E-2,-6.7819636E-3,4.6660267E-2,1.17505945E-1,8.036496E-1,-5.3896885E-3],"split_indices":[1,1,16,1,1,2,6,0,0,0,0,0,0,0,0],"split_type":[0,0,0,0,0,0,0,0,0,0,0,0,0,0,0],"sum_hessian":[4.917E3,3.916E3,1.001E3,1.691E3,2.225E3,9.8E2,2.1E1,4.81E2,1.21E3,3.46E2,1.879E3,7.69E2,2.11E2,9E0,1.2E1],"tree_param":{"num_deleted":"0","num_feature":"18","num_nodes":"15","size_leaf_vector":"1"}},{"base_weights":[2.661848E-6,-1.3449417E-3,1.6249772E-3,-3.4754917E-3,-1.0867246E-3,1.0117912E-3,2.9824243E-3,-2.1917035E-3,-9.1437675E-4,-5.486466E-4,-2.2918476E-4,-7.003913E-5,4.3196196E-4,3.6257322E-4,1.1487226E-3],"categories":[],"categories_nodes":[],"categories_segments":[],"categories_sizes":[],"default_left":[0,0,0,0,0,0,0,0,0,0,0,0,0,0,0],"id":35,"left_children":[1,3,5,7,9,11,13,-1,-1,-1,-1,-1,-1,-1,-1],"loss_changes":[1.0754104E-2,1.4744615E-3,1.8548267E-3,5.563842E-4,5.6320475E-4,6.858109E-4,8.441331E-4,0E0,0E0,0E0,0E0,0E0,0E0,0E0,0E0],"parents":[2147483647,0,0,1,1,2,2,3,3,4,4,5,5,6,6],"right_children":[2,4,6,8,10,12,14,-1,-1,-1,-1,-1,-1,-1,-1],"split_conditions":[8.5055715E-1,7.431574E-1,9.8596746E-1,7.1085334E-1,7.6514024E-1,-1.1305816E-2,-8.010897E-3,-2.1917035E-3,-9.1437675E-4,-5.486466E-4,-2.2918476E-4,-7.003913E-5,4.3196196E-4,3.6257322E-4,1.1487226E-3],"split_indices":[14,2,8,2,2,4,4,0,0,0,0,0,0,0,0],"split_type":[0,0,0,0,0,0,0,0,0,0,0,0,0,0,0],"sum_hessian":[4.917E3,2.686E3,2.231E3,2.89E2,2.397E3,1.538E3,6.93E2,3.9E1,2.5E2,8.45E2,1.552E3,3.48E2,1.19E3,1.86E2,5.07E2],"tree_param":{"num_deleted":"0","num_feature":"18","num_nodes":"15","size_leaf_vector":"1"}},{"base_weights":[2.7331042E-3,-3.802173E0,5.1273737E0,-7.376682E0,-1.18905E0,4.581875E0,1.8996866E1,-3.1938987E0,-1.6437877E0,5.722233E-3,-2.946732E0,-2.8971722E0,1.519929E0,4.6012974E0,1.0729085E1],"categories":[],"categories_nodes":[],"categories_segments":[],"categories_sizes":[],"default_left":[0,0,0,0,0,0,0,0,0,0,0,0,0,0,0],"id":36,"left_children":[1,3,5,7,9,11,13,-1,-1,-1,-1,-1,-1,-1,-1],"loss_changes":[9.591447E4,2.6359828E4,1.5770875E4,7.063164E3,1.6106168E4,6.945117E3,4.71976E3,0E0,0E0,0E0,0E0,0E0,0E0,0E0,0E0],"parents":[2147483647,0,0,1,1,2,2,3,3,4,4,5,5,6,6],"right_children":[2,4,6,8,10,12,14,-1,-1,-1,-1,-1,-1,-1,-1],"split_conditions":[1.283E3,8.364E2,1.92312E3,4.59E2,1.2597E3,-4.815545E-2,8.137642E-3,-3.1938987E0,-1.6437877E0,5.722233E-3,-2.946732E0,-2.8971722E0,1.519929E0,4.6012974E0,1.0729085E1],"split_indices":[0,0,6,0,0,4,3,0,0,0,0,0,0,0,0],"split_type":[0,0,0,0,0,0,0,0,0,0,0,0,0,0,0],"sum_hessian":[4.917E3,2.822E3,2.095E3,1.191E3,1.631E3,2.017E3,7.8E1,5.19E2,6.72E2,1.422E3,2.09E2,3.5E1,1.982E3,6.2E1,1.6E1],"tree_param":{"num_deleted":"0","num_feature":"18","num_nodes":"15","size_leaf_vector":"1"}},{"base_weights":[4.953313E-4,-6.632218E-2,1.0119812E-1,-4.132575E-1,-5.9238527E-2,6.507735E-2,2.8028673E-1,-1.5252396E-1,-7.8597285E-2,-3.0120658E-2,-1.0620127E-2,2.3913266E-2,-7.323978E-2,-8.7805754E-1,9.382718E-2],"categories":[],"categories_nodes":[],"categories_segments":[],"categories_sizes":[],"default_left":[0,0,0,0,0,0,0,0,0,0,0,0,0,0,0],"id":37,"left_children":[1,3,5,7,9,11,13,-1,-1,-1,-1,-1,-1,-1,-1],"loss_changes":[3.309851E1,7.242551E0,1.2673582E1,5.678768E-1,2.692276E0,5.3276534E0,1.8881985E1,0E0,0E0,0E0,0E0,0E0,0E0,0E0,0E0],"parents":[2147483647,0,0,1,1,2,2,3,3,4,4,5,5,6,6],"right_children":[2,4,6,8,10,12,14,-1,-1,-1,-1,-1,-1,-1,-1],"split_conditions":[1.7815E1,5.6E0,3.17E1,5.291E0,8.79E2,3.075E1,-8.411883E-2,-1.5252396E-1,-7.8597285E-2,-3.0120658E-2,-1.0620127E-2,2.3913266E-2,-7.323978E-2,-8.7805754E-1,9.382718E-2],"split_indices":[1,1,1,10,9,1,4,0,0,0,0,0,0,0,0],"split_type":[0,0,0,0,0,0,0,0,0,0,0,0,0,0,0],"sum_hessian":[4.917E3,2.956E3,1.961E3,5.8E1,2.898E3,1.633E3,3.28E2,3.9E1,1.9E1,1.191E3,1.707E3,1.576E3,5.7E1,1E0,3.27E2],"tree_param":{"num_deleted":"0","num_feature":"18","num_nodes":"15","size_leaf_vector":"1"}},{"base_weights":[1.4225246E-6,-7.9299306E-4,1.391316E-3,-1.5157957E-3,-3.9227805E-4,1.1601507E-3,4.1270177E-3,-8.985597E-4,-3.5490596E-4,3.9528953E-5,-2.4263286E-4,-9.8524535E-5,4.421027E-4,2.6046943E-3,1.0309176E-3],"categories":[],"categories_nodes":[],"categories_segments":[],"categories_sizes":[],"default_left":[0,0,0,0,0,0,0,0,0,0,0,0,0,0,0],"id":38,"left_children":[1,3,5,7,9,11,13,-1,-1,-1,-1,-1,-1,-1,-1],"loss_changes":[5.431328E-3,9.05972E-4,1.1265746E-3,5.768351E-4,3.953262E-4,5.956723E-4,4.6381564E-4,0E0,0E0,0E0,0E0,0E0,0E0,0E0,0E0],"parents":[2147483647,0,0,1,1,2,2,3,3,4,4,5,5,6,6],"right_children":[2,4,6,8,10,12,14,-1,-1,-1,-1,-1,-1,-1,-1],"split_conditions":[8.970219E-1,7.648066E-1,1.0224949E0,-8.342167E-3,9.351E2,-1.821065E-2,1.5277E1,-8.985597E-4,-3.5490596E-4,3.9528953E-5,-2.4263286E-4,-9.8524535E-5,4.421027E-4,2.6046943E-3,1.0309176E-3],"split_indices":[2,2,2,4,12,4,16,0,0,0,0,0,0,0,0],"split_type":[0,0,0,0,0,0,0,0,0,0,0,0,0,0,0],"sum_hessian":[4.917E3,3.129E3,1.788E3,1.115E3,2.014E3,1.65E3,1.38E2,2.49E2,8.66E2,8.51E2,1.163E3,2.35E2,1.415E3,2.2E1,1.16E2],"tree_param":{"num_deleted":"0","num_feature":"18","num_nodes":"15","size_leaf_vector":"1"}},{"base_weights":[3.1413E-3,-3.35473E0,3.1481698E0,-6.9614873E0,-2.3445854E0,2.2972844E0,8.8594475E0,-4.8034825E0,-1.9688998E0,2.347401E0,-8.7237847E-1,8.703666E-1,-2.5005584E0,9.191358E0,2.3878393E0],"categories":[],"categories_nodes":[],"categories_segments":[],"categories_sizes":[],"default_left":[0,0,0,0,0,0,0,0,0,0,0,0,0,0,0],"id":39,"left_children":[1,3,5,7,9,11,13,-1,-1,-1,-1,-1,-1,-1,-1],"loss_changes":[5.1947594E4,8.651199E3,1.2323141E4,2.947838E3,7.817586E3,1.0636895E4,8.291125E3,0E0,0E0,0E0,0E0,0E0,0E0,0E0,0E0],"parents":[2147483647,0,0,1,1,2,2,3,3,4,4,5,5,6,6],"right_children":[2,4,6,8,10,12,14,-1,-1,-1,-1,-1,-1,-1,-1],"split_conditions":[1.2336E3,4.59E2,1.8126E3,3.848E2,5.2502E2,1.7885E3,7.48503E-1,-4.8034825E0,-1.9688998E0,2.347401E0,-8.7237847E-1,8.703666E-1,-2.5005584E0,9.191358E0,2.3878393E0],"split_indices":[0,0,0,0,6,0,14,0,0,0,0,0,0,0,0],"split_type":[0,0,0,0,0,0,0,0,0,0,0,0,0,0,0],"sum_hessian":[4.917E3,2.378E3,2.539E3,5.19E2,1.859E3,2.211E3,3.28E2,3.9E1,4.8E2,7.7E1,1.782E3,2.115E3,9.6E1,1.8E1,3.1E2],"tree_param":{"num_deleted":"0","num_feature":"18","num_nodes":"15","size_leaf_vector":"1"}},{"base_weights":[1.15056115E-4,-2.4007428E-2,1.4241387E-1,-6.613963E-2,8.944736E-3,3.8706213E-1,7.709533E-2,-7.6765366E-2,-1.770046E-2,8.62088E-2,-4.6069375E-3,9.061154E-2,5.494631E-1,-5.491673E-1,2.7279194E-2],"categories":[],"categories_nodes":[],"categories_segments":[],"categories_sizes":[],"default_left":[0,0,0,0,0,0,0,0,0,0,0,0,0,0,0],"id":40,"left_children":[1,3,5,7,9,11,13,-1,-1,-1,-1,-1,-1,-1,-1],"loss_changes":[1.688495E1,5.83998E0,1.1363947E1,3.233263E0,1.4759877E1,1.9703552E1,1.0006809E1,0E0,0E0,0E0,0E0,0E0,0E0,0E0,0E0],"parents":[2147483647,0,0,1,1,2,2,3,3,4,4,5,5,6,6],"right_children":[2,4,6,8,10,12,14,-1,-1,-1,-1,-1,-1,-1,-1],"split_conditions":[2.6647E1,1.5556E1,1.5256E3,5.867E0,1.6121E1,4.1747E1,-8.411883E-2,-7.6765366E-2,-1.770046E-2,8.62088E-2,-4.6069375E-3,9.061154E-2,5.494631E-1,-5.491673E-1,2.7279194E-2],"split_indices":[1,1,12,13,1,16,4,0,0,0,0,0,0,0,0],"split_type":[0,0,0,0,0,0,0,0,0,0,0,0,0,0,0],"sum_hessian":[4.917E3,4.205E3,7.12E2,1.845E3,2.36E3,1.49E2,5.63E2,9.6E1,1.749E3,1.92E2,2.168E3,1.4E2,9E0,2E0,5.61E2],"tree_param":{"num_deleted":"0","num_feature":"18","num_nodes":"15","size_leaf_vector":"1"}},{"base_weights":[1.4889526E-6,-5.214198E-4,1.0337112E-3,-3.6787118E-3,-4.6317172E-4,9.5650274E-4,6.717698E-3,-2.9000184E-3,-4.4190476E-4,-2.0998946E-4,1.12204165E-4,1.941405E-4,6.151913E-4,4.724671E-3,5.807267E-4],"categories":[],"categories_nodes":[],"categories_segments":[],"categories_sizes":[],"default_left":[0,0,0,0,0,0,0,0,0,0,0,0,0,0,0],"id":41,"left_children":[1,3,5,7,9,11,13,-1,-1,-1,-1,-1,-1,-1,-1],"loss_changes":[2.655069E-3,5.9874996E-4,7.1943563E-4,7.3004724E-4,5.36818E-4,5.524397E-4,8.615401E-4,0E0,0E0,0E0,0E0,0E0,0E0,0E0,0E0],"parents":[2147483647,0,0,1,1,2,2,3,3,4,4,5,5,6,6],"right_children":[2,4,6,8,10,12,14,-1,-1,-1,-1,-1,-1,-1,-1],"split_conditions":[9.095953E-1,7.156762E-1,1.0513036E0,1.4061E1,1.2006676E-2,6.612225E-3,1.5489E1,-2.9000184E-3,-4.4190476E-4,-2.0998946E-4,1.12204165E-4,1.941405E-4,6.151913E-4,4.724671E-3,5.807267E-4],"split_indices":[11,2,11,10,4,3,1,0,0,0,0,0,0,0,0],"split_type":[0,0,0,0,0,0,0,0,0,0,0,0,0,0,0],"sum_hessian":[4.917E3,3.264E3,1.653E3,5.8E1,3.206E3,1.632E3,2.1E1,1.6E1,4.2E1,2.567E3,6.39E2,1.219E3,4.13E2,7E0,1.4E1],"tree_param":{"num_deleted":"0","num_feature":"18","num_nodes":"15","size_leaf_vector":"1"}},{"base_weights":[3.1121788E-3,-3.4582825E0,1.5776824E0,-6.510961E0,-2.8607044E0,7.776286E-1,5.785414E0,-4.2033963E0,-1.844225E0,-9.157411E-1,9.522593E0,2.6722445E0,1.4136322E-1,4.4646792E0,1.0946751E0],"categories":[],"categories_nodes":[],"categories_segments":[],"categories_sizes":[],"default_left":[0,0,0,0,0,0,0,0,0,0,0,0,0,0,0],"id":42,"left_children":[1,3,5,7,9,11,13,-1,-1,-1,-1,-1,-1,-1,-1],"loss_changes":[2.6809586E4,2.7870156E3,1.1377339E4,1.0396475E3,2.1888926E3,7.1961357E3,1.0417078E4,0E0,0E0,0E0,0E0,0E0,0E0,0E0,0E0],"parents":[2147483647,0,0,1,1,2,2,3,3,4,4,5,5,6,6],"right_children":[2,4,6,8,10,12,14,-1,-1,-1,-1,-1,-1,-1,-1],"split_conditions":[9.777E2,7.732756E-1,1.7598E3,3.787E2,9.027685E-2,1.0882E3,1.7885E3,-4.2033963E0,-1.844225E0,-9.157411E-1,9.522593E0,2.6722445E0,1.4136322E-1,4.4646792E0,1.0946751E0],"split_indices":[9,17,0,0,3,0,0,0,0,0,0,0,0,0,0],"split_type":[0,0,0,0,0,0,0,0,0,0,0,0,0,0,0],"sum_hessian":[4.917E3,1.537E3,3.38E3,2.5E2,1.287E3,2.841E3,5.39E2,2E1,2.3E2,1.286E3,1E0,1.15E2,2.726E3,1.15E2,4.24E2],"tree_param":{"num_deleted":"0","num_feature":"18","num_nodes":"15","size_leaf_vector":"1"}},{"base_weights":[9.997049E-5,-3.763732E-2,5.434961E-2,-2.8838808E-2,-1.5958568E-1,4.723316E-2,3.963493E-1,-1.3338205E-2,4.1156307E-2,-9.2281565E-2,-3.0843109E-2,1.4131175E-2,2.533447E-1,2.0737746E-1,-2.4212149E-1],"categories":[],"categories_nodes":[],"categories_segments":[],"categories_sizes":[],"default_left":[0,0,0,0,0,0,0,0,0,0,0,0,0,0,0],"id":43,"left_children":[1,3,5,7,9,11,13,-1,-1,-1,-1,-1,-1,-1,-1],"loss_changes":[1.0070343E1,3.108066E0,4.892735E0,5.858705E0,1.5761151E0,3.4542189E0,1.3059696E1,0E0,0E0,0E0,0E0,0E0,0E0,0E0,0E0],"parents":[2147483647,0,0,1,1,2,2,3,3,4,4,5,5,6,6],"right_children":[2,4,6,8,10,12,14,-1,-1,-1,-1,-1,-1,-1,-1],"split_conditions":[1.7713E1,1.7305E1,4.0354E1,1.6963E1,1.741E1,1.0507584E0,1.0513036E0,-1.3338205E-2,4.1156307E-2,-9.2281565E-2,-3.0843109E-2,1.4131175E-2,2.533447E-1,2.0737746E-1,-2.4212149E-1],"split_indices":[1,1,13,1,1,8,17,0,0,0,0,0,0,0,0],"split_type":[0,0,0,0,0,0,0,0,0,0,0,0,0,0,0],"sum_hessian":[4.917E3,2.9E3,2.017E3,2.706E3,1.94E2,1.977E3,4E1,2.495E3,2.11E2,6E1,1.34E2,1.972E3,5E0,3.3E1,7E0],"tree_param":{"num_deleted":"0","num_feature":"18","num_nodes":"15","size_leaf_vector":"1"}},{"base_weights":[1.5639736E-6,-6.4815755E-4,4.5352415E-4,-6.8972126E-4,5.3506577E-3,3.075428E-4,1.9868456E-3,-1.7181401E-3,-2.0258753E-4,5.3193123E-4,5.7300753E-3,8.905006E-5,2.3556494E-3,6.8600324E-4,-2.513347E-3],"categories":[],"categories_nodes":[],"categories_segments":[],"categories_sizes":[],"default_left":[0,0,0,0,0,0,0,0,0,0,0,0,0,0,0],"id":44,"left_children":[1,3,5,7,9,11,13,-1,-1,-1,-1,-1,-1,-1,-1],"loss_changes":[1.444456E-3,5.068447E-4,6.487382E-4,4.3602887E-4,6.28117E-4,4.6521402E-4,5.026511E-4,0E0,0E0,0E0,0E0,0E0,0E0,0E0,0E0],"parents":[2147483647,0,0,1,1,2,2,3,3,4,4,5,5,6,6],"right_children":[2,4,6,8,10,12,14,-1,-1,-1,-1,-1,-1,-1,-1],"split_conditions":[7.98212E-1,1.3893394E-2,3.2883E1,7.0502967E-1,7.863483E-1,1.0513036E0,2.2518354E-2,-1.7181401E-3,-2.0258753E-4,5.3193123E-4,5.7300753E-3,8.905006E-5,2.3556494E-3,6.8600324E-4,-2.513347E-3],"split_indices":[2,5,1,14,8,11,3,0,0,0,0,0,0,0,0],"split_type":[0,0,0,0,0,0,0,0,0,0,0,0,0,0,0],"sum_hessian":[4.917E3,2.017E3,2.9E3,2.004E3,1.3E1,2.649E3,2.51E2,1.8E1,1.986E3,1.1E1,2E0,2.641E3,8E0,2.47E2,4E0],"tree_param":{"num_deleted":"0","num_feature":"18","num_nodes":"15","size_leaf_vector":"1"}},{"base_weights":[4.3599494E-3,-2.1137702E0,1.451965E0,-5.0067554E0,-1.4980794E0,1.5074683E1,1.4037442E0,-1.0262388E0,-2.9387078E0,-8.726401E-1,-1.0101004E-1,8.41161E-2,9.8975545E-1],"categories":[],"categories_nodes":[],"categories_segments":[],"categories_sizes":[],"default_left":[0,0,0,0,0,0,0,0,0,0,0,0,0],"id":45,"left_children":[1,3,5,7,9,-1,11,-1,-1,-1,-1,-1,-1],"loss_changes":[1.5082719E4,3.5495254E3,6.4777314E3,2.616082E3,2.4722566E3,0E0,5.77788E3,0E0,0E0,0E0,0E0,0E0,0E0],"parents":[2147483647,0,0,1,1,2,2,3,3,4,4,6,6],"right_children":[2,4,6,8,10,-1,12,-1,-1,-1,-1,-1,-1],"split_conditions":[1.1881E3,-1.47021115E-2,1.2456201E1,9.344922E-1,6.61E2,1.5074683E1,2.2498E1,-1.0262388E0,-2.9387078E0,-8.726401E-1,-1.0101004E-1,8.41161E-2,9.8975545E-1],"split_indices":[0,4,7,17,9,0,13,0,0,0,0,0,0],"split_type":[0,0,0,0,0,0,0,0,0,0,0,0,0],"sum_hessian":[4.917E3,1.996E3,2.921E3,3.49E2,1.647E3,2E0,2.919E3,2.5E2,9.9E1,7.9E2,8.57E2,1.767E3,1.152E3],"tree_param":{"num_deleted":"0","num_feature":"18","num_nodes":"13","size_leaf_vector":"1"}},{"base_weights":[9.633032E-5,-1.148398E-2,9.023647E-2,-1.0524932E-2,-8.445179E-1,-1.4528135E0,9.837072E-2,-2.5774485E-2,-5.165177E-4,-4.0313748E-1,1.4186536E-1,-3.0073581E-2,-6.5571165E-1,1.6547282E-1,2.2458486E-2],"categories":[],"categories_nodes":[],"categories_segments":[],"categories_sizes":[],"default_left":[0,0,0,0,0,0,0,0,0,0,0,0,0,0,0],"id":46,"left_children":[1,3,5,7,9,11,13,-1,-1,-1,-1,-1,-1,-1,-1],"loss_changes":[5.134695E0,3.473601E0,7.1717873E0,2.761367E0,3.4047582E0,2.369504E0,6.4035144E0,0E0,0E0,0E0,0E0,0E0,0E0,0E0,0E0],"parents":[2147483647,0,0,1,1,2,2,3,3,4,4,5,5,6,6],"right_children":[2,4,6,8,10,12,14,-1,-1,-1,-1,-1,-1,-1,-1],"split_conditions":[2.80168E1,2.8586E1,-8.411883E-2,7.458E0,7.4104043E-3,1.64E3,-1.7744346E-2,-2.5774485E-2,-5.165177E-4,-4.0313748E-1,1.4186536E-1,-3.0073581E-2,-6.5571165E-1,1.6547282E-1,2.2458486E-2],"split_indices":[7,1,4,1,3,0,3,0,0,0,0,0,0,0,0],"split_type":[0,0,0,0,0,0,0,0,0,0,0,0,0,0,0],"sum_hessian":[4.917E3,4.358E3,5.59E2,4.354E3,4E0,2E0,5.57E2,4.81E2,3.873E3,3E0,1E0,1E0,1E0,3.2E1,5.25E2],"tree_param":{"num_deleted":"0","num_feature":"18","num_nodes":"15","size_leaf_vector":"1"}},{"base_weights":[2.0818843E-6,-2.4090907E-4,6.214794E-4,5.954439E-3,-2.6018466E-4,-4.0438876E-4,1.0278949E-3,2.5255098E-3,-7.0585695E-4,-1.3079658E-3,-6.3849955E-5,7.9335953E-4,-1.9714942E-4,1.3632611E-4,5.2727095E-4],"categories":[],"categories_nodes":[],"categories_segments":[],"categories_sizes":[],"default_left":[0,0,0,0,0,0,0,0,0,0,0,0,0,0,0],"id":47,"left_children":[1,3,5,7,9,11,13,-1,-1,-1,-1,-1,-1,-1,-1],"loss_changes":[7.40348E-4,4.2345663E-4,5.782788E-4,2.0473558E-4,7.8550575E-4,2.5756977E-4,3.8170908E-4,0E0,0E0,0E0,0E0,0E0,0E0,0E0,0E0],"parents":[2147483647,0,0,1,1,2,2,3,3,4,4,5,5,6,6],"right_children":[2,4,6,8,10,12,14,-1,-1,-1,-1,-1,-1,-1,-1],"split_conditions":[9.4020313E-1,-1.973114E-2,-8.010897E-3,1.7580263E-2,-1.28253E-2,9.467007E-1,2.3842E1,2.5255098E-3,-7.0585695E-4,-1.3079658E-3,-6.3849955E-5,7.9335953E-4,-1.9714942E-4,1.3632611E-4,5.2727095E-4],"split_indices":[17,5,4,3,5,14,1,0,0,0,0,0,0,0,0],"split_type":[0,0,0,0,0,0,0,0,0,0,0,0,0,0,0],"sum_hessian":[4.917E3,3.532E3,1.385E3,1E1,3.522E3,3.93E2,9.92E2,8E0,2E0,5E1,3.472E3,2.7E1,3.66E2,5.18E2,4.74E2],"tree_param":{"num_deleted":"0","num_feature":"18","num_nodes":"15","size_leaf_vector":"1"}},{"base_weights":[5.2696746E-3,-7.310703E-1,1.9963777E0,-3.150329E0,-3.869877E-1,3.063574E1,6.643157E-1,5.757864E-1,-1.1769686E0,-6.279125E-1,6.383705E-2,1.1355046E1,4.737837E0,-5.51235E0,5.829537E-1],"categories":[],"categories_nodes":[],"categories_segments":[],"categories_sizes":[],"default_left":[0,0,0,0,0,0,0,0,0,0,0,0,0,0,0],"id":48,"left_children":[1,3,5,7,9,11,13,-1,-1,-1,-1,-1,-1,-1,-1],"loss_changes":[7.211898E3,2.9880186E3,5.0642055E4,1.3196074E3,2.983947E3,4.4640312E3,2.7466244E4,0E0,0E0,0E0,0E0,0E0,0E0,0E0,0E0],"parents":[2147483647,0,0,1,1,2,2,3,3,4,4,5,5,6,6],"right_children":[2,4,6,8,10,12,14,-1,-1,-1,-1,-1,-1,-1,-1],"split_conditions":[1.4341E3,-5.6726937E-3,1.4756E3,7.5300074E-1,6.647E2,9.9314064E-1,1.5071E3,5.757864E-1,-1.1769686E0,-6.279125E-1,6.383705E-2,1.1355046E1,4.737837E0,-5.51235E0,5.829537E-1],"split_indices":[0,5,0,2,0,8,0,0,0,0,0,0,0,0,0],"split_type":[0,0,0,0,0,0,0,0,0,0,0,0,0,0,0],"sum_hessian":[4.917E3,3.59E3,1.327E3,4.46E2,3.144E3,5.8E1,1.269E3,4.7E1,3.99E2,8.43E2,2.301E3,4.2E1,1.6E1,7.7E1,1.192E3],"tree_param":{"num_deleted":"0","num_feature":"18","num_nodes":"15","size_leaf_vector":"1"}},{"base_weights":[-9.33512E-5,-1.7254427E-2,3.824552E-2,-5.642691E-2,1.1204204E-3,2.1145213E-1,6.9069783E-3,-4.724956E-2,-1.301183E-2,-7.071187E-2,1.1596322E-3,3.569312E-2,2.1449839E-1,-1.23286076E-1,1.2372582E-2],"categories":[],"categories_nodes":[],"categories_segments":[],"categories_sizes":[],"default_left":[0,0,0,0,0,0,0,0,0,0,0,0,0,0,0],"id":49,"left_children":[1,3,5,7,9,11,13,-1,-1,-1,-1,-1,-1,-1,-1],"loss_changes":[3.2363906E0,2.4459043E0,8.254593E0,1.5271072E0,1.3409334E0,1.0661606E1,1.6670254E1,0E0,0E0,0E0,0E0,0E0,0E0,0E0,0E0],"parents":[2147483647,0,0,1,1,2,2,3,3,4,4,5,5,6,6],"right_children":[2,4,6,8,10,12,14,-1,-1,-1,-1,-1,-1,-1,-1],"split_conditions":[1.9615E1,-2.097225E-3,2.131E1,-2.5130866E-2,5.291E0,2.0879E1,2.2163E1,-4.724956E-2,-1.301183E-2,-7.071187E-2,1.1596322E-3,3.569312E-2,2.1449839E-1,-1.23286076E-1,1.2372582E-2],"split_indices":[1,5,1,4,1,1,1,0,0,0,0,0,0,0,0],"split_type":[0,0,0,0,0,0,0,0,0,0,0,0,0,0,0],"sum_hessian":[4.917E3,3.397E3,1.52E3,1.084E3,2.313E3,2.32E2,1.288E3,1.49E2,9.35E2,2.5E1,2.288E3,1.93E2,3.9E1,9.6E1,1.192E3],"tree_param":{"num_deleted":"0","num_feature":"18","num_nodes":"15","size_leaf_vector":"1"}},{"base_weights":[1.7670268E-6,-4.612362E-4,2.048975E-4,-1.266591E-3,-2.3652388E-4,1.5434784E-4,2.1858173E-3,-4.3333956E-4,7.4639433E-4,-1.3233102E-3,-5.8218946E-5,5.479495E-5,-1.169189E-3,3.444979E-4,1.3745475E-3],"categories":[],"categories_nodes":[],"categories_segments":[],"categories_sizes":[],"default_left":[0,0,0,0,0,0,0,0,0,0,0,0,0,0,0],"id":50,"left_children":[1,3,5,7,9,11,13,-1,-1,-1,-1,-1,-1,-1,-1],"loss_changes":[4.6263268E-4,2.7116016E-4,3.4202356E-4,1.3465411E-4,2.3926527E-4,2.5583926E-4,1.9759356E-4,0E0,0E0,0E0,0E0,0E0,0E0,0E0,0E0],"parents":[2147483647,0,0,1,1,2,2,3,3,4,4,5,5,6,6],"right_children":[2,4,6,8,10,12,14,-1,-1,-1,-1,-1,-1,-1,-1],"split_conditions":[7.7821016E-1,-8.342167E-3,4.0388223E-2,1.0587219E-2,7.0502967E-1,3.852862E-2,9.703179E-1,-4.3333956E-4,7.4639433E-4,-1.3233102E-3,-5.8218946E-5,5.479495E-5,-1.169189E-3,3.444979E-4,1.3745475E-3],"split_indices":[17,4,4,5,14,4,14,0,0,0,0,0,0,0,0],"split_type":[0,0,0,0,0,0,0,0,0,0,0,0,0,0,0],"sum_hessian":[4.917E3,1.499E3,3.418E3,3.26E2,1.173E3,3.334E3,8.4E1,3.17E2,9E0,1.4E1,1.159E3,3.318E3,1.6E1,5.7E1,2.7E1],"tree_param":{"num_deleted":"0","num_feature":"18","num_nodes":"15","size_leaf_vector":"1"}},{"base_weights":[5.6278436E-3,-6.4403765E-2,1.5593772E1,-1.8542944E-1,7.2251725E0,2.6541939E1,-1.165829E1,-4.8441395E-2,-9.589898E0,-5.603112E0,3.6106408E0,1.0613728E1,2.8149946E0,-1.1542147E0,-6.6367993E0],"categories":[],"categories_nodes":[],"categories_segments":[],"categories_sizes":[],"default_left":[0,0,0,0,0,0,0,0,0,0,0,0,0,0,0],"id":51,"left_children":[1,3,5,7,9,11,13,-1,-1,-1,-1,-1,-1,-1,-1],"loss_changes":[5.3698022E3,4.3215996E3,6.873356E3,4.591677E3,8.711271E3,1.7213096E3,4.5018604E2,0E0,0E0,0E0,0E0,0E0,0E0,0E0,0E0],"parents":[2147483647,0,0,1,1,2,2,3,3,4,4,5,5,6,6],"right_children":[2,4,6,8,10,12,14,-1,-1,-1,-1,-1,-1,-1,-1],"split_conditions":[1.9651E3,3.7857E1,2.602E1,3.9374E1,1.0114292E0,7.895776E-1,2.73532E1,-4.8441395E-2,-9.589898E0,-5.603112E0,3.6106408E0,1.0613728E1,2.8149946E0,-1.1542147E0,-6.6367993E0],"split_indices":[0,1,16,13,11,17,7,0,0,0,0,0,0,0,0],"split_type":[0,0,0,0,0,0,0,0,0,0,0,0,0,0,0],"sum_hessian":[4.917E3,4.896E3,2.1E1,4.817E3,7.9E1,1.5E1,6E0,4.813E3,4E0,1.1E1,6.8E1,1E1,5E0,4E0,2E0],"tree_param":{"num_deleted":"0","num_feature":"18","num_nodes":"15","size_leaf_vector":"1"}},{"base_weights":[-6.20089E-5,-1.6481995E-3,3.5301244E-1,-1.3010044E-4,-6.759484E-1,-1.0210555E0,9.321039E-1,-7.30432E-4,6.6674955E-2,-3.438015E-1,1.0263348E-1,2.865894E-3,-4.515661E-1,-2.6883062E-3,3.9222214E-1],"categories":[],"categories_nodes":[],"categories_segments":[],"categories_sizes":[],"default_left":[0,0,0,0,0,0,0,0,0,0,0,0,0,0,0],"id":52,"left_children":[1,3,5,7,9,11,13,-1,-1,-1,-1,-1,-1,-1,-1],"loss_changes":[2.7548752E0,5.0127482E0,1.8457373E1,2.2704916E0,4.947917E0,2.9976592E0,4.7403784E0,0E0,0E0,0E0,0E0,0E0,0E0,0E0,0E0],"parents":[2147483647,0,0,1,1,2,2,3,3,4,4,5,5,6,6],"right_children":[2,4,6,8,10,12,14,-1,-1,-1,-1,-1,-1,-1,-1],"split_conditions":[4.1747E1,4.1747E1,-1.3560699E-3,3.7857E1,1.3143332E-2,1.4948E3,4.1747E1,-7.30432E-4,6.6674955E-2,-3.438015E-1,1.0263348E-1,2.865894E-3,-4.515661E-1,-2.6883062E-3,3.9222214E-1],"split_indices":[16,1,5,10,3,0,10,0,0,0,0,0,0,0,0],"split_type":[0,0,0,0,0,0,0,0,0,0,0,0,0,0,0],"sum_hessian":[4.917E3,4.896E3,2.1E1,4.886E3,1E1,6E0,1.5E1,4.837E3,4.9E1,7E0,3E0,2E0,4E0,4E0,1.1E1],"tree_param":{"num_deleted":"0","num_feature":"18","num_nodes":"15","size_leaf_vector":"1"}},{"base_weights":[1.1251195E-6,-1.3783036E-4,4.7409523E-4,-1.6428642E-4,2.025936E-3,-6.423052E-3,5.674616E-4,1.0902864E-3,-5.687542E-5,-2.032179E-3,8.7106775E-4,-3.8711296E-3,-3.5793663E-4,-1.892623E-5,3.5096184E-4],"categories":[],"categories_nodes":[],"categories_segments":[],"categories_sizes":[],"default_left":[0,0,0,0,0,0,0,0,0,0,0,0,0,0,0],"id":53,"left_children":[1,3,5,7,9,11,13,-1,-1,-1,-1,-1,-1,-1,-1],"loss_changes":[3.232851E-4,2.1797733E-4,7.229501E-4,2.248553E-4,3.0745883E-4,4.5206182E-4,3.7927285E-4,0E0,0E0,0E0,0E0,0E0,0E0,0E0,0E0],"parents":[2147483647,0,0,1,1,2,2,3,3,4,4,5,5,6,6],"right_children":[2,4,6,8,10,12,14,-1,-1,-1,-1,-1,-1,-1,-1],"split_conditions":[1.1569187E-2,3.7857E1,-1.28253E-2,-1.973114E-2,1.0081357E0,9.2164445E-4,1.1779E3,1.0902864E-3,-5.687542E-5,-2.032179E-3,8.7106775E-4,-3.8711296E-3,-3.5793663E-4,-1.892623E-5,3.5096184E-4],"split_indices":[4,1,5,5,11,3,0,0,0,0,0,0,0,0,0],"split_type":[0,0,0,0,0,0,0,0,0,0,0,0,0,0,0],"sum_hessian":[4.917E3,3.801E3,1.116E3,3.756E3,4.5E1,1.4E1,1.102E3,1.6E1,3.74E3,3E0,4.2E1,6E0,8E0,5.14E2,5.88E2],"tree_param":{"num_deleted":"0","num_feature":"18","num_nodes":"15","size_leaf_vector":"1"}},{"base_weights":[2.6551906E-3,-2.5756153E-1,3.41007E0,-6.9176845E-2,-1.1249031E1,3.89926E0,-2.1047398E1,-7.906004E-2,4.213321E0,-1.199367E0,-5.0912943E0,4.5136185E0,9.98712E-1,-1.44455185E1,2.8544497E0],"categories":[],"categories_nodes":[],"categories_segments":[],"categories_sizes":[],"default_left":[0,0,0,0,0,0,0,0,0,0,0,0,0,0,0],"id":54,"left_children":[1,3,5,7,9,11,13,-1,-1,-1,-1,-1,-1,-1,-1],"loss_changes":[4.361503E3,9.461977E3,4.257628E3,1.101381E4,2.7615625E3,2.5538965E3,5.6566895E3,0E0,0E0,0E0,0E0,0E0,0E0,0E0,0E0],"parents":[2147483647,0,0,1,1,2,2,3,3,4,4,5,5,6,6],"right_children":[2,4,6,8,10,12,14,-1,-1,-1,-1,-1,-1,-1,-1],"split_conditions":[1.8087E3,1.7885E3,4.1747E1,1.7758E3,7.8806853E-1,7.48503E-1,-2.0979062E-2,-7.906004E-2,4.213321E0,-1.199367E0,-5.0912943E0,4.5136185E0,9.98712E-1,-1.44455185E1,2.8544497E0],"split_indices":[0,0,10,0,8,14,4,0,0,0,0,0,0,0,0],"split_type":[0,0,0,0,0,0,0,0,0,0,0,0,0,0,0],"sum_hessian":[4.917E3,4.569E3,3.48E2,4.493E3,7.6E1,3.42E2,6E0,4.434E3,5.9E1,3.1E1,4.5E1,2.1E1,3.21E2,3E0,3E0],"tree_param":{"num_deleted":"0","num_feature":"18","num_nodes":"15","size_leaf_vector":"1"}},{"base_weights":[-9.014094E-5,1.7275434E-3,-2.1634804E-1,-5.570482E-4,2.712672E-1,9.8904574E-1,-3.7339184E-1,2.4391264E-5,-1.9320092E-1,1.1220034E-1,-6.1001547E-2,3.9228114E-1,1.2646168E-1,-2.6106002E-2,-2.4981347E-1],"categories":[],"categories_nodes":[],"categories_segments":[],"categories_sizes":[],"default_left":[0,0,0,0,0,0,0,0,0,0,0,0,0,0,0],"id":55,"left_children":[1,3,5,7,9,11,13,-1,-1,-1,-1,-1,-1,-1,-1],"loss_changes":[1.9335835E0,3.0039654E0,8.130587E0,1.883107E0,1.6952126E0,2.5508785E-1,4.4522367E0,0E0,0E0,0E0,0E0,0E0,0E0,0E0,0E0],"parents":[2147483647,0,0,1,1,2,2,3,3,4,4,5,5,6,6],"right_children":[2,4,6,8,10,12,14,-1,-1,-1,-1,-1,-1,-1,-1],"split_conditions":[1.9453E3,1.9225E3,7.49569E-1,1.9453E3,2.757E1,3.4788985E-2,1.6221977E-3,2.4391264E-5,-1.9320092E-1,1.1220034E-1,-6.1001547E-2,3.9228114E-1,1.2646168E-1,-2.6106002E-2,-2.4981347E-1],"split_indices":[0,9,11,12,16,4,5,0,0,0,0,0,0,0,0],"split_type":[0,0,0,0,0,0,0,0,0,0,0,0,0,0,0],"sum_hessian":[4.917E3,4.877E3,4E1,4.837E3,4E1,4E0,3.6E1,4.833E3,4E0,3.4E1,6E0,2E0,2E0,2.2E1,1.4E1],"tree_param":{"num_deleted":"0","num_feature":"18","num_nodes":"15","size_leaf_vector":"1"}},{"base_weights":[-5.276914E-8,-7.0132583E-4,8.985817E-5,8.0672366E-4,-1.5904536E-3,-1.4490092E-5,8.112321E-4,3.3681502E-4,-2.1759458E-3,-1.7131348E-3,-4.5266718E-4,-8.237664E-6,1.7443128E-3,2.8454245E-4,-2.0587698E-3],"categories":[],"categories_nodes":[],"categories_segments":[],"categories_sizes":[],"default_left":[0,0,0,0,0,0,0,0,0,0,0,0,0,0,0],"id":56,"left_children":[1,3,5,7,9,11,13,-1,-1,-1,-1,-1,-1,-1,-1],"loss_changes":[3.1015335E-4,7.508175E-4,3.282069E-4,4.3070398E-4,1.9835774E-4,2.4759627E-4,3.825575E-4,0E0,0E0,0E0,0E0,0E0,0E0,0E0,0E0],"parents":[2147483647,0,0,1,1,2,2,3,3,4,4,5,5,6,6],"right_children":[2,4,6,8,10,12,14,-1,-1,-1,-1,-1,-1,-1,-1],"split_conditions":[-1.9038457E-2,9.7344E2,2.7274E1,2.8254807E-3,1.451E1,1.0513036E0,2.2518354E-2,3.3681502E-4,-2.1759458E-3,-1.7131348E-3,-4.5266718E-4,-8.237664E-6,1.7443128E-3,2.8454245E-4,-2.0587698E-3],"split_indices":[4,6,10,3,10,11,3,0,0,0,0,0,0,0,0],"split_type":[0,0,0,0,0,0,0,0,0,0,0,0,0,0,0],"sum_hessian":[4.917E3,5.58E2,4.359E3,2.07E2,3.51E2,3.809E3,5.5E2,2.01E2,6E0,1.2E1,3.39E2,3.802E3,7E0,5.44E2,6E0],"tree_param":{"num_deleted":"0","num_feature":"18","num_nodes":"15","size_leaf_vector":"1"}}]},"name":"gbtree"},"learner_model_param":{"base_score":"[1.178746E3,1.8035183E1,8.5625106E-1]","boost_from_average":"1","num_class":"0","num_feature":"18","num_target":"3"},"objective":{"name":"reg:squarederror","reg_loss_param":{"scale_pos_weight":"1"}}},"version":[3,1,2]}